svm_type c_svc
kernel_type precomputed
nr_class 80
total_sv 1879
rho -1.08792 -1.09499 -0.989296 -1.58515 -1.08246 -1.24054 -1.08528 -1.52958 -1.51328 -1.26743 -0.893014 -0.671257 -0.785683 -2.35998 -1.01708 -1.05065 -1.05617 -0.878433 -1.03506 -0.998514 -0.875377 -1.13189 -0.99989 -1.75917 -1.23186 -1.15024 -0.742002 -2.07301 -0.999971 -0.858362 -1.15818 -1.02525 -1.12479 -1.19747 -1.04531 -1.11988 -1.07065 -1.20423 -1.19639 -1.08545 -1.08261 -1.06271 -1.07609 -1.60932 -0.999962 -1.1185 -0.894704 -1.88613 -1.00017 -0.999786 -1.00015 -1.10112 -1.03707 -1.00002 -1.17812 -1.04805 -1.00018 -1.2045 -0.99767 -1.08654 -1.07301 -1.28573 -0.999885 -0.95438 -0.960543 -1.19058 -1.12503 -0.922117 -1.17204 -1.13186 -1.03716 -1.00001 -1.0131 -1.14528 -1.05102 -0.957271 -1.18791 -1.13306 -1.00004 -0.426607 0.806415 0.405831 0.263129 -0.963998 -1.09948 -0.830983 -1.04237 -0.603242 0.547925 0.904757 0.739354 -0.968539 -0.563239 0.0794351 0.283747 0.652547 -0.1085 0.0252273 0.618823 -0.169941 -0.677008 -0.906252 -0.372888 -1.06055 0.90059 -0.977258 -0.170661 -0.0366876 -0.826984 0.375358 -0.92006 -0.93732 -0.63565 -0.989161 -0.938501 -0.976737 -0.643906 -0.874572 -0.411073 -0.66917 -0.394534 -0.858361 -0.913324 -0.832512 0.34919 -0.894498 -1.24591 -1.05699 -1.02129 -0.939958 -0.845707 -1.00916 -0.635135 -0.980934 -0.708542 -1.0458 -0.251012 -0.844151 -0.608843 -1.19482 -0.638675 -0.00225871 -0.221375 -0.866918 -0.949884 -0.162679 -0.957208 -1.09062 -0.674968 -0.415333 -0.151834 -0.599793 -0.975144 -0.550657 -1.03584 -0.651864 -0.995208 0.980047 0.908982 0.737018 -1.21592 -1.1673 -0.791883 -1.00552 -0.275115 0.696936 0.92926 0.992308 -0.94037 -0.142399 0.422075 0.528695 0.817617 0.346867 0.419999 0.721977 0.327124 -0.386303 -1.09806 0.0454717 -1.15129 0.979455 -1.03219 0.410371 0.30948 -0.909681 0.75143 -1.02204 -1.2396 -0.3848 -1.05388 -1.0103 -0.980589 -1.05334 -0.813937 -0.0428024 -0.344546 -0.0172569 -0.640473 -1.02732 -0.782092 0.9629 -0.733322 -1.06393 -1.06552 -1.06141 -0.933085 -0.595712 -0.994136 -0.535986 -0.978462 -0.691888 -1.15966 0.344152 -0.730441 -0.353927 -1.15823 -0.274526 1.3114 0.18921 -0.867943 -0.887625 0.389533 -1.13038 -1.19285 -0.415169 0.0519105 0.544256 -0.459047 -0.933388 -0.0447682 -1.11488 -0.644632 -1.01522 -0.72558 -0.607545 -1.28723 -1.24928 -1.21372 -1.1595 -1.23843 -0.24115 0.420149 0.224222 -1.18359 -0.952972 -0.709293 -0.628311 -0.0883951 -0.810428 -0.603532 -0.0845488 -0.879852 -0.938215 -1.20807 -1.04139 -1.24519 0.440646 -1.22023 -0.776793 -0.701214 -1.14195 -0.358987 -1.1492 -1.27252 -0.952714 -1.16726 -1.04077 -1.12025 -1.30175 -0.977058 -0.887128 -0.962084 -0.861965 -1.16725 -1.31959 -1.08517 -0.158394 -1.11903 -1.12665 -1.08691 -1.14423 -1.1048 -1.08783 -1.15736 -1.13414 -1.1006 -1.02978 -1.20637 -0.933787 -1.07711 -0.922441 -1.18131 -0.965013 -0.516937 -0.821773 -1.14515 -1.15695 -0.6161 -1.14416 -1.20797 -1.01884 -0.809761 -0.682765 -1.03933 -1.01859 -0.858172 -1.20452 -1.03958 -1.05476 -0.143062 -1.1469 -1.14059 -0.988848 -1.13725 -0.888194 0.118577 0.671458 0.568694 -1.26382 -0.760931 -0.440794 -0.247246 0.253436 -0.557472 -0.379828 0.214961 -0.416581 -0.855264 -1.23108 -0.803771 -1.2093 0.669828 -1.2428 -0.618904 -0.350165 -1.00055 0.0777149 -1.07466 -1.1627 -0.906568 -1.07455 -1.043 -1.18813 -1.13818 -0.960173 -0.727615 -0.870051 -0.758389 -1.14728 -1.0616 -1.5185 0.145502 -1.36924 -1.334 -1.13029 -1.07717 -1.02127 -0.871217 -1.02969 -0.959348 -0.995855 -0.955846 -1.24371 -0.610604 -1.02548 -0.838282 -1.29232 -0.868568 -0.0625131 -0.460485 -1.14714 -1.35372 -0.1736 -1.11548 -1.12239 -0.912033 -0.655581 -0.352721 -0.921618 -1.00064 -0.642063 -1.2941 -0.975085 -1.13952 -1.26832 -1.26546 -1.08853 -1.1967 -0.860615 0.366801 0.732401 0.657388 -1.25776 -0.774189 -0.302783 -0.0602295 0.565514 -0.362052 -0.229139 0.423604 -0.406801 -0.750022 -1.11212 -0.795992 -1.29866 0.733445 -1.17083 -0.363005 -0.422039 -1.10036 0.23412 -1.19271 -1.1949 -0.821818 -1.17781 -1.07385 -1.13524 -1.32297 -0.956385 -0.649315 -0.853012 -0.708442 -1.06311 -1.19701 -1.4933 0.205993 -1.08919 -1.13135 -1.1227 -1.1238 -1.03235 -0.915286 -1.10674 -1.05193 -1.0225 -0.948455 -1.33878 -0.534191 -1.06277 -0.829851 -1.24208 -0.779426 -0.15542 -0.420076 -1.16669 -1.16242 -0.224035 -1.18842 -1.13953 -0.86187 -0.525231 -0.298135 -0.879204 -1.0341 -0.602452 -1.20301 -0.97304 -1.09318 -0.72363 0.675139 -0.952145 0.938253 1.11446 1.09395 1.0781 -0.370052 0.869986 1.02555 1.11311 1.10183 1.04149 1.10282 1.10725 1.05565 0.745266 0.403608 1.08073 -0.793047 1.09981 -0.257353 1.03867 1.13454 0.777852 1.12734 0.531405 0.310318 0.872077 0.45908 0.409939 0.188378 1.33732 0.582047 1.01741 0.986837 0.925692 0.619482 0.45487 0.332048 1.05533 0.380913 -1.15947 -0.745914 -0.362842 0.0603516 0.733754 -0.27112 1.14446 -0.0216867 0.964793 -0.82328 1.19576 0.558537 0.90749 -1.17354 0.995704 1.12985 0.899015 0.377144 0.0940012 1.00555 -0.23393 -0.856742 0.811525 0.970501 1.07147 0.862397 0.0277256 0.885238 -0.784787 1.00216 -0.633175 0.873482 0.23913 1.07153 1.09576 1.0986 1.12139 0.0840449 0.984413 1.11899 1.19449 1.09594 1.11911 1.21349 1.08156 1.23794 0.902629 0.812516 1.22578 -0.218478 1.15456 0.378248 1.07242 1.09074 1.05904 1.07201 1.03538 0.64433 0.99425 1.01485 0.85983 0.759963 1.11242 0.935693 1.03255 1.06893 1.03 1.02991 1.05083 0.743114 1.03156 0.851165 -1.31295 -0.51528 0.167212 0.525049 1.09629 0.22418 1.23631 0.447836 1.03423 -0.0485766 1.21413 0.747123 1.01009 -0.747696 1.10529 1.09342 0.948028 0.802977 0.604304 1.07304 0.418574 -0.436997 0.955066 1.03402 1.07759 0.995291 0.524816 0.945226 -0.277202 1.00408 -0.259538 -0.874325 0.585915 1.11592 1.01674 0.99337 -0.715205 0.589066 0.822219 0.908805 1.18321 0.803897 0.899467 1.10287 0.867249 0.380344 -0.343739 0.66853 -0.974049 1.02793 -0.755079 0.885877 1.05387 0.047265 0.943675 -0.228519 -0.39438 0.456321 -0.321769 -0.217161 -0.438846 0.466504 0.0195716 0.762218 0.510472 0.559943 0.138412 -0.310058 -0.329231 0.947503 -0.128354 -1.08765 -0.881598 -0.835038 -0.456116 0.220103 -0.860721 0.594625 -0.497373 0.393191 -0.969401 0.981721 0.0329754 0.424732 -0.987702 0.536808 0.907077 0.721676 -0.327608 -0.521901 0.787388 -0.623061 -0.926922 0.408006 0.6968 0.889034 0.488736 -0.438332 0.596345 -0.881863 0.413994 -0.898538 0.974854 1.06917 1.09665 1.12567 -0.190976 0.911968 1.11236 1.12942 1.10772 0.896191 1.1186 1.07165 1.13919 0.834825 0.607176 0.987291 -0.350334 1.06278 0.0864211 1.01967 1.14566 0.8445 1.06278 0.7079 0.500328 0.879568 0.773542 0.550133 0.519722 0.934654 0.67486 0.967249 0.912574 1.04377 0.872395 0.714053 0.591326 0.99635 0.71945 -1.11689 -0.520703 0.0300471 0.309032 0.945597 0.0595929 1.14968 0.20467 0.872511 -0.234274 1.08271 0.660237 0.937644 -0.638473 0.95704 0.996104 0.928114 0.556072 0.351287 0.982957 0.177206 -0.469865 0.864795 0.970022 1.00977 0.892758 0.292115 0.895445 -0.514454 0.851731 -0.321289 0.851214 0.976867 0.967189 -0.897584 0.113643 0.512415 0.690881 0.907004 0.273005 0.651252 0.859149 0.390534 -0.239666 -0.783707 0.194965 -1.14776 1.00868 -1.01369 0.455557 0.610987 -0.553944 0.765521 -0.770513 -0.809392 -0.185268 -0.817192 -0.658528 -0.83037 -0.138839 -0.540962 0.191482 -0.109845 0.195186 -0.519447 -0.993304 -0.629953 0.765647 -0.665513 -1.22143 -1.04818 -1.07048 -0.818198 -0.427724 -0.945826 0.0171101 -0.819455 -0.300444 -1.02637 0.527497 -0.612224 -0.163169 -1.11045 -0.0430899 0.860971 0.419433 -0.746592 -0.894476 0.478667 -0.872383 -1.07333 -0.257314 0.208576 0.656418 -0.238983 -0.795967 0.104514 -1.04065 -0.272324 -0.979205 0.550032 0.364534 -1.02761 -0.785628 -0.454706 -0.330443 0.232703 -0.585862 -0.365364 0.276889 -0.597909 -0.891964 -1.02286 -0.741533 -1.08501 0.591621 -1.08912 -0.524946 -0.599126 -0.992471 0.0378024 -1.0263 -1.08779 -0.84872 -1.04266 -1.02416 -1.03638 -0.985575 -0.924474 -0.687809 -0.889489 -0.808371 -0.956053 -1.04719 -1.1665 -0.0342453 -1.04439 -1.10398 -1.03484 -1.04336 -0.984932 -0.932492 -1.10205 -0.899444 -0.993181 -0.891825 -1.09068 -0.626388 -0.981169 -0.870638 -1.06223 -0.855977 -0.332021 -0.554466 -1.01978 -1.00943 -0.470107 -1.04394 -1.07152 -0.873634 -0.681491 -0.469963 -0.904648 -1.03334 -0.788964 -1.04964 -0.823419 -1.03971 -0.161998 -1.05424 -0.931036 -0.818751 -0.728967 -0.353686 -0.812457 -0.715083 -0.351468 -0.905589 -0.936977 -1.05262 -0.92061 -1.09736 0.105863 -1.12334 -0.827933 -0.770292 -0.997851 -0.557342 -1.00899 -1.03843 -0.959199 -1.06347 -1.05971 -1.05631 -0.998787 -0.995127 -0.873724 -0.959356 -0.901542 -1.01994 -1.05456 -1.01554 -0.592779 -1.0286 -1.17777 -1.03446 -1.03125 -1.02661 -1.00843 -1.0739 -0.986371 -0.998069 -0.9673 -1.1268 -0.91673 -0.991547 -0.921331 -1.07497 -0.941553 -0.808541 -0.876072 -1.00957 -1.03068 -0.871177 -1.03586 -1.06509 -0.96162 -0.855556 -0.888418 -0.923576 -1.03285 -0.908568 -1.07133 -0.976948 -1.0432 -1.06378 -0.88792 -0.671914 -0.595717 -0.260442 -0.803122 -0.66825 -0.223479 -0.817459 -0.95215 -1.05238 -0.877676 -1.13386 0.265859 -1.04385 -0.758695 -0.690935 -1.04089 -0.41722 -1.03602 -1.14786 -0.981491 -1.06088 -1.04703 -1.09287 -1.08461 -1.01299 -0.878536 -0.921265 -0.874685 -1.00648 -1.07155 -1.0534 -0.494195 -1.05129 -1.17329 -1.04494 -1.02932 -1.01538 -0.991166 -1.04184 -1.11882 -1.01518 -1.06498 -1.14761 -0.821332 -1.01028 -0.946091 -1.11109 -0.948577 -0.809587 -0.81486 -1.01208 -1.01603 -0.780364 -1.05815 -1.0911 -0.950288 -0.848897 -0.827604 -0.957137 -1.02892 -0.837094 -1.15735 -0.99157 -1.03476 0.975095 1.14024 1.0905 1.05029 1.08789 1.21236 1.12458 1.13727 0.813291 0.536779 0.953846 -0.229755 1.08882 0.253102 0.951836 1.18197 0.804848 1.04357 0.634742 0.423173 0.907829 0.677149 0.543469 0.553664 0.829094 0.675442 1.03341 0.87946 1.18673 1.01489 0.623736 0.934104 0.97965 0.89142 -1.0054 -0.449868 0.0430081 0.473206 0.817357 0.120168 1.0378 0.286825 0.822367 -0.110414 1.03493 0.730595 0.864356 -0.539909 0.888224 0.974322 0.948524 0.728172 0.445011 0.97731 0.216911 -0.327061 0.882157 0.918083 0.973113 0.912573 0.33298 0.921253 -0.29514 0.832167 -0.274918 0.512408 0.645863 0.799583 0.456781 0.566075 0.865689 0.473342 -0.296857 -0.74852 0.218533 -1.03039 0.940865 -0.899504 0.431108 0.496178 -0.652029 0.735089 -0.724869 -0.813874 -0.224738 -0.790403 -0.744946 -0.844758 -0.335693 -0.622859 0.135173 -0.156157 0.0658813 -0.564851 -0.78 -0.853785 0.688764 -0.679012 -1.18763 -1.0312 -0.969477 -0.824911 -0.451221 -0.950933 -0.160787 -0.946284 -0.273117 -1.02388 0.366089 -0.572501 -0.141045 -1.15818 -0.0972798 0.579847 0.369314 -0.807817 -0.822306 0.442962 -0.887696 -1.15784 -0.260602 0.143874 0.457636 -0.332267 -0.815438 0.0355354 -0.985304 -0.302608 -0.955643 0.134949 0.554 -0.136022 0.116706 0.641266 -0.173724 -0.756071 -0.9087 -0.428262 -1.04813 0.871527 -1.0792 -0.119855 0.0791569 -0.890909 0.268001 -0.942404 -0.934611 -0.623517 -0.971178 -1.05218 -1.06081 -0.656602 -0.957334 -0.438034 -0.672568 -0.368512 -0.869321 -0.878183 -0.879571 0.337665 -0.925257 -1.16152 -1.06881 -0.956228 -0.998901 -0.924997 -1.03392 -0.574075 -0.959369 -0.702399 -1.27316 -0.166812 -0.853856 -0.585093 -1.13452 -0.613353 -0.0358876 -0.229637 -0.934727 -0.973674 -0.175677 -1.02272 -1.06375 -0.696622 -0.413805 -0.170375 -0.624368 -1.03097 -0.47675 -1.09505 -0.734254 -1.03925 0.437584 -0.348909 -0.145022 0.441205 -0.326652 -0.760492 -0.977026 -0.521742 -1.21867 0.781478 -1.08299 -0.308586 -0.24365 -0.963954 0.2201 -1.01041 -1.07848 -0.741955 -1.05117 -1.016 -1.08053 -0.819414 -0.911062 -0.577594 -0.728803 -0.612541 -0.901328 -0.957476 -1.00277 0.191957 -0.964442 -1.14936 -1.04534 -1.02923 -0.971169 -0.9761 -1.03763 -0.811248 -0.987763 -0.808708 -1.29284 -0.34335 -0.913098 -0.727007 -1.25733 -0.719855 -0.141777 -0.412451 -1.01466 -0.972232 -0.343795 -1.02267 -1.13139 -0.794915 -0.497719 -0.25602 -0.742455 -1.06815 -0.611703 -1.15255 -0.760285 -1.00654 -0.623453 -0.479204 0.0761049 -0.668648 -0.934033 -1.09668 -0.763642 -1.17678 0.441084 -1.12017 -0.637334 -0.689617 -1.00466 -0.214402 -1.02399 -1.08818 -0.92593 -1.03944 -0.993517 -1.02766 -0.999898 -0.947633 -0.824375 -0.858228 -0.747429 -1.04692 -1.1034 -1.17453 -0.173405 -1.04211 -1.10393 -1.06481 -1.04884 -1.03306 -0.912201 -1.12162 -0.940105 -1.00414 -0.932526 -1.11053 -0.715732 -0.985446 -0.883581 -1.11309 -0.83786 -0.488562 -0.609026 -1.00458 -1.02338 -0.534924 -1.01704 -1.0421 -0.937243 -0.75162 -0.617654 -0.989036 -0.998236 -0.80204 -1.13684 -0.942643 -1.09093 0.133489 0.658016 -0.00799851 -0.574315 -0.95054 -0.317062 -1.16441 0.83364 -1.15608 -0.0233469 0.110387 -0.882136 0.53526 -0.951337 -0.936487 -0.595759 -0.956544 -0.910972 -1.05061 -0.686599 -0.823482 -0.379468 -0.572046 -0.438086 -0.794277 -0.935193 -0.946884 0.362333 -0.925149 -1.15127 -1.01523 -0.991082 -0.956525 -0.732342 -0.951249 -0.762767 -0.926204 -0.693508 -1.07712 -0.166487 -0.86156 -0.552294 -1.14943 -0.557139 0.0544933 -0.177112 -0.979623 -0.996217 -0.117299 -0.992109 -1.03516 -0.674001 -0.326317 -0.0656816 -0.600821 -0.930925 -0.431851 -1.23986 -0.670558 -1.00112 0.563491 -0.167396 -0.709678 -0.946653 -0.398175 -1.17556 0.786105 -1.18955 -0.154 -0.197305 -0.933467 0.397494 -0.952471 -0.982069 -0.683662 -1.00098 -0.966367 -1.36771 -0.791117 -0.878212 -0.472976 -0.681333 -0.531324 -0.948881 -0.959953 -0.994859 0.223421 -0.951869 -1.09385 -1.09713 -0.996474 -0.993731 -0.798571 -0.998885 -0.737507 -0.970478 -0.732028 -1.34957 -0.289653 -0.882841 -0.533785 -1.26243 -0.636787 -0.056748 -0.265379 -1.07744 -0.990299 -0.191341 -1.07522 -1.18284 -0.729647 -0.477506 -0.20145 -0.741052 -0.970337 -0.531996 -1.3493 -0.745638 -1.03769 -0.739494 -0.931466 -0.993085 -0.814696 -1.06035 0.379254 -1.08875 -0.64322 -0.695493 -0.983494 -0.203007 -0.988792 -1.01002 -0.871365 -1.00331 -0.990245 -1.02823 -0.895191 -0.96962 -0.779428 -0.883626 -0.799994 -0.993797 -0.994374 -1.0988 -0.251813 -1.04622 -1.12959 -1.05477 -1.01153 -1.00777 -0.986903 -1.12399 -0.894725 -0.992086 -0.872959 -1.20801 -0.714323 -0.981503 -0.832959 -1.11814 -0.881842 -0.497696 -0.719523 -1.09062 -1.04128 -0.661025 -1.04421 -1.05199 -0.903963 -0.806422 -0.635327 -0.914773 -1.01691 -0.811883 -1.07337 -0.8872 -1.04005 -0.675924 -0.917208 -0.351061 -1.1777 0.85548 -1.15905 -0.0656207 0.133517 -0.893428 0.5062 -0.961705 -0.973492 -0.558116 -1.00605 -0.944385 -1.09823 -0.669982 -0.890254 -0.288616 -0.584955 -0.36593 -0.925306 -0.966943 -1.02348 0.389201 -0.964396 -1.2483 -1.07142 -0.985701 -0.950551 -0.779849 -1.01802 -0.610251 -0.98597 -0.70873 -1.25133 -0.0526773 -0.824034 -0.577807 -1.21632 -0.544333 0.129953 -0.109917 -0.937705 -1.00963 -0.0702156 -1.01821 -1.07738 -0.60987 -0.332125 0.0013595 -0.562267 -0.964263 -0.376905 -1.20338 -0.652458 -1.07915 -0.600318 0.451452 -0.966368 0.964959 -0.80212 0.595042 0.648622 -0.311605 0.839904 -0.517949 -0.616899 0.0847953 -0.561085 -0.52589 -0.666147 -0.0361859 -0.332632 0.388325 0.129338 0.330425 -0.178179 -0.57184 -0.581278 0.809704 -0.399838 -1.01597 -0.9264 -0.859133 -0.646789 -0.162397 -0.882826 0.12974 -0.690426 0.00573066 -0.927991 0.548904 -0.242705 0.111444 -0.961478 0.170648 0.661017 0.536308 -0.538462 -0.632054 0.595918 -0.750235 -0.929945 0.0305371 0.412451 0.611814 0.01875 -0.644105 0.292763 -0.903359 0.0112994 -0.95751 0.896333 -1.00612 1.08075 -0.607551 0.987524 1.00794 0.412586 1.0084 0.125016 -0.12098 0.734177 0.0950659 0.0735502 -0.156331 0.867444 0.323486 0.987692 0.747764 0.75866 0.42981 0.0387999 0.0428762 1.0714 0.139343 -1.12216 -0.837581 -0.623299 -0.209172 0.472943 -0.555556 0.938295 -0.245487 0.717803 -0.850782 1.00233 0.314499 0.678895 -1.01621 0.759786 1.07243 0.780529 0.0075662 -0.193651 0.892491 -0.416174 -0.84173 0.649121 0.921756 1.02554 0.838074 -0.193813 0.78057 -0.821942 0.798742 -0.714744 -1.1706 0.933633 -0.953301 0.255177 0.413538 -0.830845 0.682996 -0.930334 -0.997943 -0.359852 -1.0109 -0.920171 -0.973557 -0.623184 -0.827857 -0.0480006 -0.357124 -0.0615488 -0.723212 -0.872916 -0.814731 0.622435 -0.717748 -1.33658 -1.13583 -1.0561 -0.883492 -0.626162 -0.954073 -0.340978 -1.01452 -0.500469 -1.27331 0.311652 -0.734556 -0.345234 -1.29329 -0.301058 0.539242 0.157589 -0.913565 -0.873831 0.316306 -1.11302 -1.17527 -0.450637 0.0099535 0.306081 -0.438506 -0.920169 -0.122861 -1.16 -0.489871 -0.992989 1.11351 0.555561 1.04589 1.15669 1.06037 1.18674 1.00131 0.80118 1.07019 1.08764 0.811012 0.839288 1.1646 0.878527 1.07655 1.08298 1.03919 0.993648 1.11536 0.895889 1.03234 0.866986 -1.18779 -0.282037 0.405305 0.638692 0.955169 0.394265 1.27327 0.579887 1.03359 0.193256 1.13386 0.798361 1.06229 -0.430985 1.06286 1.09231 0.927522 0.817634 0.639853 1.02582 0.512462 -0.196113 0.965317 1.06349 1.10129 1.11604 0.52188 0.966135 -0.0612129 1.02185 -0.110244 -1.07278 -0.842402 -0.772833 -1.04291 -0.677097 -1.0601 -1.13446 -0.994531 -1.08245 -1.06229 -1.02656 -1.03159 -1.05646 -0.955604 -0.947924 -0.85656 -0.993504 -1.06415 -0.979108 -0.628577 -0.999837 -1.10014 -1.06261 -1.03791 -1.02398 -1.03581 -1.05095 -1.02866 -1.01747 -1.04906 -1.16438 -0.884873 -1.0326 -0.944036 -1.14538 -0.989339 -0.853178 -0.911172 -1.03323 -1.04816 -0.923417 -1.03482 -1.0941 -0.998273 -0.911788 -0.9243 -0.961906 -1.04292 -0.91846 -1.15811 -0.971767 -1.01453 1.01199 1.14829 0.777328 1.09584 0.553798 0.341157 0.917728 0.61261 0.464172 0.456575 0.944411 0.614754 1.0603 0.896975 2.15199 0.953489 0.593459 0.57823 1.02294 0.630587 -1.08979 -0.568889 -0.126805 0.293015 0.745419 -0.0593985 1.08943 0.158023 0.849673 -0.37388 1.06561 0.662385 0.864816 -0.75689 0.88458 1.02406 0.915796 0.52544 0.307965 0.958182 0.0778571 -0.512318 0.856679 0.957507 1.03033 1.05787 0.200252 0.929171 -0.527307 0.915663 -0.443011 0.0348515 -0.805726 0.475867 -0.984812 -1.0119 -0.616653 -1.0044 -0.984904 -1.01576 -0.758526 -0.898117 -0.333257 -0.593117 -0.38673 -0.794806 -0.927995 -0.85322 0.440271 -0.803807 -1.04898 -1.01023 -0.989282 -0.907353 -0.735769 -0.990704 -0.590423 -0.962329 -0.668763 -1.0943 -0.0345088 -0.769123 -0.651107 -1.12926 -0.530272 0.0878776 -0.0627429 -0.907489 -0.925617 -0.0197281 -1.06203 -1.02436 -0.559679 -0.325801 -0.0299821 -0.639206 -0.963734 -0.393884 -1.03192 -0.700111 -0.983279 -0.926481 0.470526 -1.0441 -0.967754 -0.569226 -0.986866 -0.895332 -1.03415 -0.750592 -0.808618 -0.322015 -0.560331 -0.438368 -0.786069 -1.03025 -1.33907 0.371418 -0.949934 -1.08012 -1.02613 -1.04631 -0.970277 -0.737218 -1.10646 -0.746345 -0.926261 -0.635739 -1.16435 -0.11802 -0.816487 -0.513808 -1.13158 -0.54015 0.075689 -0.138856 -1.05211 -1.05429 -0.0593769 -1.03259 -1.00791 -0.606351 -0.319894 -0.0429905 -0.736145 -0.967702 -0.443727 -1.10464 -0.674775 -1.07571 0.951785 -0.41107 -0.503863 0.508783 -0.403377 -0.363267 -0.55545 0.468075 -0.0213537 0.730148 0.549009 0.680474 0.0734972 -0.413878 -0.309316 0.953385 -0.201719 -1.13982 -1.06158 -0.839612 -0.545539 0.227802 -0.75632 0.671659 -0.60992 0.468779 -1.14705 0.922888 -0.0897844 0.516048 -1.1897 0.59174 1.03071 0.738962 -0.41304 -0.560532 0.883742 -0.768578 -1.0593 0.419868 0.718496 0.951399 0.382775 -0.570505 0.564026 -1.00521 0.415215 -0.897449 -0.997065 -1.1083 -0.857728 -0.992339 -0.99887 -1.06295 -0.900467 -0.950692 -0.780852 -0.820696 -0.768476 -0.944055 -0.974449 -0.972911 -0.0915291 -0.965319 -1.14868 -1.02715 -1.00339 -0.994227 -0.899142 -1.01244 -0.867743 -0.977778 -0.922997 -1.18029 -0.513773 -0.976355 -0.771695 -1.14142 -0.813504 -0.382704 -0.628716 -0.988448 -0.995351 -0.526495 -1.08951 -1.08409 -0.878715 -0.679077 -0.544377 -0.863222 -0.996118 -0.7524 -1.17068 -0.895001 -1.00713 -0.202885 0.647409 -0.0732447 -0.04512 -0.297645 0.689347 0.274991 0.86701 0.774278 0.779916 0.281789 -0.0742568 -0.0375843 0.980413 0.0480363 -1.17041 -0.94214 -0.756031 -0.278744 0.481003 -0.594877 0.912839 -0.383053 0.759223 -1.12249 1.04023 0.18676 0.710273 -1.2293 0.860946 1.05279 0.802512 -0.087228 -0.327486 0.953988 -0.623226 -0.969629 0.627627 0.893638 0.975056 0.584934 -0.344421 0.725184 -0.977941 0.63351 -0.797865 0.918183 0.207352 0.120772 -0.0773727 1.05474 0.36795 0.986403 0.906887 0.794726 0.461284 0.183753 0.144879 1.06291 0.166103 -0.995089 -0.802846 -0.629973 -0.0888152 0.522878 -0.407699 1.06105 -0.240556 0.826632 -0.670955 1.05128 0.250686 0.801252 -0.897056 0.862749 1.17281 0.782199 0.0602175 -0.147466 0.919731 -0.41721 -0.912205 0.670425 0.968379 1.10812 0.875946 -0.166774 0.74156 -0.782421 0.809833 -0.680886 -0.656464 -0.606164 -0.780287 -0.183273 -0.385567 0.393326 0.0451128 0.329078 -0.301221 -0.814094 -0.687624 0.859226 -0.54461 -1.03892 -1.02896 -0.954736 -0.887725 -0.24913 -0.867635 0.0449534 -0.780207 -0.108 -1.01286 0.537426 -0.417491 0.0745811 -1.05006 0.0857143 0.803797 0.499168 -0.701754 -0.771953 0.524664 -0.834677 -1.03103 -0.0703818 0.333333 0.694611 -0.0987124 -0.715607 0.214286 -0.992737 -0.087108 -0.961858 -0.0373827 -0.336488 0.721233 0.297289 0.854102 0.80735 0.788991 0.408871 0.117233 -0.0288103 1.02646 0.113924 -1.15922 -1.00842 -0.671817 -0.26722 0.457899 -0.634097 0.972694 -0.339075 0.677375 -1.14691 1.04587 0.196391 0.812655 -1.23007 0.826198 1.02129 0.755269 -0.0510686 -0.201098 0.957834 -0.546741 -0.977519 0.580883 0.964981 0.977634 0.643909 -0.335027 0.732109 -1.04717 0.656433 -0.808937 -0.224303 0.637367 0.365427 0.788522 0.733467 0.751372 0.360842 -0.0406585 -0.016825 1.03739 0.0879425 -1.08255 -0.907475 -0.559515 -0.229147 0.482138 -0.517188 0.760662 -0.338558 0.758701 -0.93262 0.945345 0.215835 0.827994 -1.02961 0.802998 0.975659 0.765882 -0.0564417 -0.235 0.971134 -0.554386 -0.851722 0.54173 0.87247 0.921569 0.532154 -0.335019 0.686567 -0.814073 0.645098 -0.746068 0.704025 0.447118 0.908787 0.85058 1.16578 0.829302 0.229829 0.212697 0.97562 0.359428 -1.08597 -0.783011 -0.433748 -0.0158954 0.603184 -0.355113 0.945262 -0.119149 0.733545 -0.803887 1.03124 0.368261 0.939897 -1.03428 0.827239 0.989834 0.839753 0.201121 -0.0432686 0.929559 -0.281209 -0.851224 0.689426 0.890594 0.942797 0.764225 -0.077894 0.785239 -1.10276 0.743477 -0.675239 -0.351451 0.522956 0.282681 0.386715 -0.389418 -0.858644 -0.575378 1.00136 -0.484835 -1.10385 -0.988889 -1.06148 -0.744349 -0.0706231 -0.87671 0.321338 -0.808356 0.113003 -1.17131 0.904386 -0.456642 0.204439 -1.19952 0.320975 1.19797 0.467524 -0.728613 -0.773297 0.71031 -1.10541 -1.16124 0.0474249 0.559471 0.939383 0.0687743 -0.671275 0.372583 -1.07349 0.0816025 -0.963586 0.624912 0.533512 0.590103 0.146845 -0.246614 -0.223836 0.957569 -0.11982 -1.08429 -0.976913 -0.688857 -0.410516 0.207577 -0.666935 0.499968 -0.550448 0.390244 -0.972047 0.786706 -0.0300424 0.575189 -1.02234 0.562162 0.882022 0.688053 -0.284759 -0.414861 0.912913 -0.780755 -0.929067 0.342474 0.758621 0.834711 0.328 -0.541353 0.545254 -0.868378 0.446281 -0.831776 -0.267677 -0.0664249 -0.605848 -0.904765 -0.875169 0.73038 -0.729201 -1.04159 -1.02224 -1.02054 -1.01225 -0.516976 -0.988767 -0.371801 -0.861601 -0.393866 -1.07307 0.244904 -0.671347 -0.246224 -1.06354 -0.222121 0.489374 0.231401 -0.891398 -0.888816 0.287706 -0.944061 -1.04699 -0.467078 0.0277295 0.358395 -0.538779 -0.834631 -0.0820982 -1.01248 -0.443506 -0.997163 0.250976 -0.399212 -0.796874 -0.636841 0.774601 -0.555972 -1.06322 -1.03016 -1.04636 -0.748762 -0.307524 -0.886972 -0.0203889 -0.880102 -0.148855 -1.08056 0.547127 -0.457134 0.0514007 -1.09319 0.0378151 0.672515 0.394504 -0.743682 -0.819918 0.530303 -1.06464 -1.10566 -0.111549 0.318627 0.581006 -0.120275 -0.765777 0.19917 -1.04742 -0.156118 -0.9682 -0.539014 -0.762872 -1.00346 0.681231 -0.925995 -1.11128 -1.01535 -0.88981 -0.951719 -0.514725 -0.897928 -0.331558 -0.844644 -0.367397 -1.08301 0.245243 -0.632767 -0.203882 -1.081 -0.202721 0.425956 0.275571 -0.987345 -0.877573 0.295051 -0.909518 -1.0056 -0.345131 0.0426137 0.326576 -0.360477 -0.828995 -0.0412609 -1.14773 -0.374343 -0.984094 -0.260641 -0.585854 0.881748 -0.362093 -1.0906 -1.08912 -0.77236 -0.687045 -0.0106668 -0.780057 0.507282 -0.632969 0.235146 -1.04096 0.895833 -0.256736 0.371096 -1.09737 0.428106 0.812222 0.616837 -0.536366 -0.626209 0.736617 -0.687928 -0.964596 0.174179 0.616471 0.751517 0.229795 -0.560561 0.484417 -1.044 0.217279 -0.945701 -0.0225495 0.987827 0.124163 -1.16343 -0.959718 -0.878254 -0.291496 0.436352 -0.578222 0.947805 -0.346673 0.733447 -0.914956 1.10464 0.18502 0.632449 -1.13711 0.81555 1.10292 0.843211 -0.0695783 -0.34826 0.919532 -0.480718 -0.99316 0.625808 0.86512 1.0445 0.796664 -0.237364 0.746861 -0.944939 0.649865 -0.86348 0.935634 0.309784 -1.05679 -0.918724 -0.567893 -0.270243 0.38225 -0.583279 0.774701 -0.254373 0.514753 -0.782777 0.887985 0.261291 0.577655 -0.959619 0.640222 0.903422 0.811182 -0.0323757 -0.251358 0.830613 -0.366574 -0.748448 0.530709 0.790755 0.884956 0.779784 -0.204164 0.72092 -0.907163 0.53602 -0.863478 -0.922044 -1.02292 -1.01913 -0.990326 -1.00414 -0.896224 -1.00419 -0.891244 -0.984713 -0.941819 -1.02469 -0.469715 -0.902611 -0.781996 -1.01383 -0.76806 -0.46687 -0.483273 -0.940521 -0.954063 -0.436819 -1.00176 -1.04185 -0.817056 -0.643283 -0.561924 -0.887548 -0.980687 -0.664394 -1.00827 -0.969784 -0.998868 -1.09552 -0.911025 -0.613662 -0.369164 0.295822 -0.614508 0.647687 -0.374532 0.456482 -0.809852 0.935922 0.180503 0.527798 -0.991464 0.582461 0.899783 0.831902 -0.173235 -0.414006 0.824942 -0.456142 -0.89052 0.448491 0.667255 0.877788 0.47539 -0.338797 0.608839 -1.00292 0.479986 -0.858706 1.04855 1.09679 1.05526 1.12514 1.06026 1.12066 1.04428 1.04778 1.23483 1.12693 1.02799 1.01999 1.10757 1.06317 1.03721 1.13628 1.07429 1.11947 1.04133 1.07424 1.07056 1.04297 1.03525 1.04339 1.03828 1.04678 1.01632 1.07498 1.04026 0.836417 0.458381 0.756803 1.00514 0.505515 1.1181 0.685726 0.987223 0.533377 1.04321 0.816607 0.992458 -0.0565956 1.03545 1.03518 0.965713 0.905915 0.720263 1.05349 0.637931 0.0980392 0.95049 1.01254 1.02328 1.01397 0.677128 0.970149 0.21556 0.978078 0.11772 0.354315 0.796995 0.0715116 1.11349 0.302295 0.925125 -0.199249 1.06263 0.66255 0.866866 -0.626642 1.05551 1.08298 0.914357 0.551904 0.416351 0.980484 0.210562 -0.464682 0.921109 1.03754 1.05729 0.951407 0.294118 0.919479 -0.329545 0.899838 -0.33253 0.596195 -0.311487 0.87881 -0.0632911 0.750663 -0.55172 0.962695 0.448177 0.708863 -0.758259 0.775253 0.984952 0.882063 0.224419 0.00376648 0.898734 -0.163763 -0.650554 0.746266 0.856777 0.990223 0.805085 -0.0194903 0.797314 -0.580677 0.758344 -0.628545 -0.803316 0.352304 -0.69267 0.195391 -1.01863 0.778548 -0.186146 0.357823 -1.03781 0.401959 0.82399 0.705491 -0.453997 -0.631423 0.847496 -0.737628 -1.03736 0.224342 0.523512 0.78301 0.174399 -0.751489 0.420176 -0.939754 0.17759 -0.888623 1.00591 0.201791 0.82348 -0.345769 1.04789 0.626562 0.837143 -0.584301 0.896283 0.98961 0.902955 0.492406 0.296528 0.968376 0.116049 -0.434096 0.827224 0.976765 1.03285 0.934149 0.263263 0.935652 -0.35594 0.838409 -0.401435 -0.881619 -0.148631 -1.25838 0.693849 -0.588795 -0.0609615 -1.24404 0.0849124 0.917977 0.474458 -0.820382 -0.877218 0.584649 -0.991408 -1.1669 -0.130128 0.370703 0.803765 -0.113197 -0.921137 0.211508 -1.19338 -0.0843514 -1.02996 0.789091 -0.458288 1.00874 0.474774 0.851646 -0.70609 0.834129 1 0.882114 0.241529 0.0723577 0.965978 -0.117371 -0.679784 0.732807 0.873843 0.977833 0.696068 0.048124 0.798701 -0.534793 0.746286 -0.512729 -1.04646 0.631637 -0.381021 0.162872 -1.0914 0.217195 0.974684 0.579559 -0.600644 -0.737533 0.66055 -0.893973 -1.11336 0.0163944 0.446352 0.764706 0.0134228 -0.746532 0.283388 -1.0276 0.00829876 -0.973896 1.1768 0.793348 1.1047 -3.38808 1.09313 1.07992 0.939531 0.897805 0.633254 1.07104 0.562872 -0.374537 0.959609 1.03441 1.05422 1.02232 0.525414 0.946275 -0.261191 1.07409 -0.234124 -0.844686 -0.545727 -1.16213 -0.492032 0.212338 0.00293043 -1.04896 -1.09869 0.0539165 -1.10469 -1.14532 -0.620822 -0.188468 0.0745791 -0.557523 -0.949073 -0.327808 -1.25929 -0.66798 -1.04599 0.514064 -0.931111 0.513297 0.899014 0.790522 -0.321113 -0.530745 0.808765 -0.608935 -0.914561 0.333573 0.581665 0.843476 0.303259 -0.485321 0.512977 -0.792039 0.340174 -0.788621 -1.09002 0.0073206 0.642384 0.368691 -0.709194 -0.741875 0.520958 -1.00356 -1.03227 -0.181052 0.271551 0.524837 -0.0695445 -0.81239 0.12 -1.04099 -0.188192 -0.928412 1.15076 1.09975 1.02511 1.11559 0.919103 1.08316 0.933144 0.18898 1.00714 1.05237 1.05885 1.05918 0.72246 0.975751 0.488112 1.08359 0.161372 0.746479 0.515939 -0.732174 -0.842541 0.615385 -0.951794 -1.05635 -0.144416 0.309392 0.575758 -0.150685 -0.855615 0.150579 -1.04292 -0.165468 -0.987581 -0.170834 -0.972325 -0.984869 -0.116279 -1.06111 -1.1279 -0.734364 -0.393701 -0.2 -0.793651 -0.953964 -0.406061 -1.07998 -0.904762 -1.00867 -0.892903 -0.938801 0.0591359 -1.24883 -0.968701 -0.566751 -0.219918 0.0516862 -0.533297 -0.894022 -0.304015 -0.946049 -0.511468 -0.954907 -0.237736 0.916667 -0.473451 -0.852594 0.605852 0.801681 0.906854 0.651123 -0.190933 0.775717 -0.873177 0.67446 -0.765137 0.951482 -0.216878 -0.742929 0.718078 0.854942 0.95788 0.71555 -0.02331 0.810237 -0.687102 0.709434 -0.632981 -1.01722 -1.05577 -0.576351 -0.27027 -0.00980392 -0.546875 -0.981333 -0.311475 -1.01609 -0.612069 -0.984412 -0.665227 0.793438 0.972073 0.998942 0.790766 0.162016 0.873156 -0.563539 1.04967 -0.494787 1.00942 0.994416 1.1102 0.979798 0.620319 0.958842 0.148401 1.08072 0.0296367 0.364179 0.645171 -0.00391784 -0.70876 0.288148 -0.935491 0.00198794 -0.927048 0.293233 -0.423729 -0.879899 -0.0837438 -1.01367 -0.425 -1.00245 -0.695 -0.969657 -0.325581 -1.0424 -0.712121 -0.994272 -0.639485 0.292254 -1 -0.00706714 -0.993357 0.770715 -0.543152 0.681193 -0.528835 -0.937723 -0.292096 -0.938861 1.0098 -0.0685921 -0.961386
label 0 17 33 10 11 19 67 34 63 74 13 6 2 16 86 25 4 15 7 41 55 1 12 48 43 38 75 20 56 18 30 87 3 32 73 59 50 77 52 42 72 62 44 57 47 61 39 79 27 84 90 80 37 71 36 40 88 14 66 8 78 24 70 92 31 68 64 82 65 23 9 26 76 28 91 5 54 51 58 29
probA 0.0787893 -2.78173 -0.691342 -0.62903 -0.996948 -1.18467 0.0614527 -1.35639 0.186727 -1.65004 0.0453759 -0.137345 -0.886704 -0.585421 -2.32816 -0.171367 -0.0010021 0.0406599 -0.0558525 -1.86692 -0.37283 -1.85986 -4725.16 -1.0048 -0.0662082 -6.01397 -0.353566 -0.648981 -0.246527 -0.547423 -0.078522 -0.988128 -0.260963 -2.71712 -0.516896 -0.0736976 -1.21058 -1.36722 -1.62829 -0.995802 -0.475452 -0.557041 -0.117294 -0.281265 -0.798017 -2.11768 -0.192733 -0.763926 -0.616621 -0.793473 -3387.88 -1.82146 -1.23126 -0.824699 -0.212498 -1.3233 -1.41324 -0.490911 -1.59181 -0.386965 0.0932865 -3.02935 -0.350986 -0.1427 -2.06865 -1.07381 -1.61128 -0.168336 -1.36457 -2.88064 -1.91069 -0.273392 -0.24776 -0.478123 -1.2579 -0.336461 -2.29009 -0.611628 -0.785144 -1.41392 -1.38399 -1.61119 -1.69771 -0.612708 1.79004 -2.04559 -0.473465 -1.7747 0.0092003 -0.0420508 -1.00472 -1.47293 -0.990527 0.659718 -0.0506272 0.017146 -0.303528 -1.96227 -0.784752 -1.0585 -0.130108 0.404716 -1.0473 -2.13774 -0.444996 0.259096 -0.144514 -2.01253 0.633694 -0.0499393 -0.294172 -1.52815 -0.178788 1.7425 0.206828 -0.829615 -2.15661 0.121529 -0.246177 -0.095678 -1.18774 -1.50506 -0.122601 -1.28375 -0.623579 -1.30903 -0.144658 0.397673 -0.24325 0.36665 -0.0557588 0.971806 0.0545341 0.00504355 -0.126462 -0.334351 -1.29199 -0.386259 0.0510702 0.168594 -0.098404 -0.0606467 -0.923724 0.145018 0.165514 -0.0911341 0.575636 0.0367952 -2.62919 -0.217966 -0.064124 -0.163455 1.00042 -0.269229 0.279509 -0.0658807 1.29035 -1.3315 -0.38166 -1.8865 -1.39873 -5.75875 -1.07325 -1.57579 -1.58733 -0.713509 -2.66632 -2.01117 -0.979599 -0.385497 -3.54177 -1.7387 -0.0111276 -0.593459 -2.3795 0.177279 -1.93774 4.58245 6.9451 -1.20965 -2.31591 0.416686 14.0735 0.27588 -2.36285 5.37686 -1.76923 -3.94471 -0.395899 3.31768 -1.49867 7.20062 -1.33107 -0.518553 5.64848 4.57869 3.17822 -2.00916 -0.798406 -7.45786 -0.816379 -0.2923 -2.60046 51.5585 36.3335 7.19075 12.2193 -4.13015 10.9778 1.72464 12.7167 2.31626 -2.03637 -0.847719 -0.29012 3.95388 7.14928 2.12929 1.26094 0.118282 7.71075 9.85006 2.44002 13.5414 6.52345 -6.70993 2.84504 1.87558 3.79053 9.44021 3.77889 18.6454 2.8531 29.9542 -1.45146 -1.8849 -0.798491 -0.113154 -1.22483 -0.950761 -0.607664 -1.89945 -0.316673 -1.32618 -1.75933 -1.0941 -2.49523 -2.54506 -1.53298 0.125189 -3.85285 -1.46225 -1.18896 -0.178821 -0.0160817 -0.260902 -0.497611 -0.711052 -0.18748 -0.250126 -1.8544 0.113698 -3.8484 -0.218895 -0.859449 -0.43484 2.42073 0.0700889 -1.0631 -0.616619 0.0461831 0.0846573 0.145107 -3.15149 -0.48678 0.0296542 -1.49116 -1.50592 0.231837 -0.0614254 0.0819387 -2.88902 0.136292 -0.460011 -1.93186 0.0722316 -0.0242884 0.0803252 -0.477426 -0.200447 -3.83136 -0.471241 -1.51413 0.0931326 -0.140043 -1.13753 0.0532253 0.055468 -0.0925733 0.02344 -0.0739383 -1.49933 -0.352698 -0.0901848 -0.149797 0.124936 -0.251352 -0.000843659 0.0296123 0.176305 -1.62213 -2.26353 0.3686 -2.82486 -1.16511 -1.51224 -0.656677 -1.00608 -1.20632 -1.88659 -1.60031 -3.12382 -2.54547 0.0173293 0.366366 -2.88259 -0.602954 -1.79273 -0.608605 -0.411353 -1.70411 -4.40406 -0.86394 -0.4635 0.399501 -2.70664 4.12251 -2.18066 0.420609 -1.84439 -0.659068 1.36773 -0.356299 -1.51273 -2.87623 -0.993479 -0.504276 -0.40158 -1.64509 -0.672138 1.04078 -1.91406 -1.29821 -0.693498 -2.08631 -0.428755 -0.439565 -0.635323 -1.31006 -0.534381 1.3296 -0.488659 -0.689459 -2.00801 -1.67388 -0.0794759 0.800811 -0.344928 -0.38253 -0.147038 -0.277946 -0.283692 -0.647333 -0.164406 -0.335781 -0.880148 -5.3649 -0.251507 -0.198253 -0.458578 -0.728076 -0.464923 -0.866395 -0.490891 -1.50084 -3.92555 1.47972 -1.84042 -4.79549 -2.27324 -0.105773 -1.82281 -1.68504 -1.64007 -0.789164 -1.4675 -1.9377 0.0266018 0.574983 -2.49778 -0.865348 -0.470536 2.08567 0.525686 -2.1208 -4.00179 -0.676626 0.433659 1.9072 -0.374912 2.83629 -2.75983 1.78753 -1.2319 1.38363 2.10023 0.96183 -3.10337 -1.77439 0.589621 1.44136 0.644426 -2.38263 -1.07029 -1.18077 -1.26641 -1.14231 -3.83191 -2.33877 1.16226 1.12039 3.37118 -0.977787 1.34946 1.70455 3.13021 1.47811 -3.67461 -0.632622 -3.1851 3.61388 0.682669 2.52162 0.164268 0.645843 3.58548 1.53457 0.321308 1.12645 -0.206671 -4.76878 0.477396 0.350488 0.562389 3.28812 0.284325 0.484607 0.478109 1.76013 0.183068 -1.31906 0.503603 0.604665 -0.531468 -0.494515 -1.64268 -1.06784 -1.54723 -1.54522 -0.115051 -0.0110117 -0.72702 -1.98857 -1.84852 -0.937029 0.975154 0.670629 -1.23333 -1.04261 -1.66456 0.682649 -0.106988 -2.09337 -1.11029 -1.97339 -0.537877 -0.633731 0.868469 0.743496 1.05089 -0.913151 -0.980153 1.10655 -1.57278 0.812394 -1.57843 -0.49948 -0.548418 -1.54199 -0.849279 -1.61039 4.66912 1.99446 0.812081 1.09784 -1.89545 0.955118 1.0546 1.2841 0.885535 -0.216879 -1.85741 0.771812 1.25865 1.19353 0.80897 0.976403 -0.880304 0.70919 0.789416 1.08567 0.74645 1.42017 -1.82264 0.859871 0.952669 0.809852 1.4161 0.956556 0.905654 0.873306 1.34519 -2.64323 2.59269 0.468697 0.186217 -0.0643256 -1.95819 -0.991705 1.39664 0.285972 0.259222 0.0525169 0.423382 -2.80667 1.2053 -0.079608 1.29522 1.14103 1.5164 3.16811 -0.610454 1.24294 0.318225 -12.0315 4.22488 1.23181 3.0915 0.785856 1.23415 1.66445 1.12065 2.14256 1.02564 1.16908 -5.4564 1.18268 -2.5755 2.19938 3.54704 -4.49464 -2.62604 4.44826 4.41422 1.56536 1.33645 1.28606 11.2147 1.33843 -0.598663 1.31196 1.18685 2.2737 -2.0309 1.69909 1.53296 1.31646 1.16789 1.2298 1.933 1.15022 1.20424 1.23562 1.16465 1.38669 -8.25061 1.24676 1.23374 1.23303 1.28976 1.31153 1.23108 1.20922 1.73991 -1.39746 -1.51457 -0.935752 -0.27736 -1.8947 -1.14229 -1.20381 -1.68387 -1.42742 -0.0670571 -0.618968 -1.77984 -2.29798 -1.75813 0.220402 0.647786 -1.81759 -3.1095 -1.14091 1.11777 -0.863321 -1.71231 -0.224596 -4.19383 -0.350374 -0.873521 0.187855 0.618755 0.648008 -1.26485 -1.51212 0.482786 -0.775085 0.255601 -1.48149 -1.73915 -0.702271 -1.17917 -1.27425 -1.15119 3.00484 2.66162 1.04279 0.657737 -1.01903 1.17559 -0.404332 0.716889 0.245721 -3.1159 -1.41451 -0.449523 1.16908 2.08453 0.223661 0.132664 -1.15653 0.582575 0.768821 0.169817 1.01393 1.84175 -1.36236 0.204338 0.139675 0.16737 0.831826 0.176916 1.76184 0.25824 1.98704 1.22947 -0.214011 -0.403661 -3.20132 -1.00049 -2.53656 -0.937738 -0.187215 -0.0255036 0.785509 -8.03838 -3.19919 -2.50525 1.60961 1.59819 -1.14563 3.68728 -1.29797 1.42985 -0.328516 -3.58284 -0.373988 -6.15924 1.21906 -0.667868 0.949606 2.17282 1.45383 0.768895 -0.900401 1.20402 -1.60501 0.873006 -1.40218 1.0579 7.024 -0.784981 -1.40564 -0.100386 5.51272 2.69658 2.07885 1.78648 -0.840958 1.63112 -2.75936 1.74596 1.05317 1.25648 -3.61326 0.994349 2.14453 2.32294 1.0243 0.746069 -1.82339 1.03762 1.15194 0.655722 1.68713 2.62341 -0.673983 0.931905 0.737869 1.33952 1.28308 0.696582 1.96073 1.11758 1.6561 -1.67 -1.06002 -1.23195 -1.39747 0.520188 -2.3488 -1.9032 -0.181073 -0.130808 -2.36008 -1.07113 -0.668457 0.0165374 1.49599 -0.268502 -0.781654 -2.12145 1.86999 0.269697 -0.742435 1.26173 -1.5791 0.625923 -0.613042 0.364937 2.57332 0.597598 -3.54668 -0.587243 1.09738 -0.420418 0.222345 -2.14585 -0.899925 2.01587 -1.45045 -0.756593 2.03394 0.59701 4.97579 0.862573 2.86284 -0.267905 1.86255 1.54429 1.36264 0.779238 -0.125432 -0.790224 0.379567 2.77949 0.641408 0.319783 0.0784058 -0.588463 2.22648 4.41962 -0.0546849 1.0505 0.649804 -2.28552 0.0765319 -0.0662945 0.183614 0.998513 -0.0371137 0.839377 0.582652 3.38805 -0.20574 -0.298205 -0.908539 -0.511624 0.110732 0.0136235 0.070642 -0.163276 -1.9964 -0.259974 -0.112672 0.156239 0.693998 -0.842388 -0.302246 -0.127194 0.257648 -1.02512 -0.905201 0.612547 -0.147457 0.0650499 -0.608274 -0.04408 0.308936 0.654649 0.216425 -0.145854 0.206138 -0.188317 0.0643178 -3.07848 -0.0220524 0.920303 -0.456689 -0.654466 -1.20241 0.130182 0.311027 0.192686 0.216805 0.0132407 0.578607 0.12629 0.227081 -0.00982431 0.0708527 -0.629872 -1.29011 0.413397 0.148979 0.0386468 -0.0250893 -0.790575 0.141722 -0.00514157 -0.0855161 0.195499 0.118869 -2.78716 -0.0651449 -0.0330908 0.338449 0.226633 -0.0962445 0.192631 0.00517281 0.477835 -1.03214 -1.21138 -0.831487 0.0087128 0.00537641 -0.224993 -0.287831 -1.80629 -0.266102 -0.370137 0.0379741 0.418126 -1.04622 -0.497794 -0.0896674 0.104068 -0.933959 -0.806603 0.328214 -0.0359461 0.00153255 -1.57849 -0.038263 -0.0265388 1.10765 -1.90524 -1.99603 0.568022 -0.0866964 0.273526 -2.12271 -0.589911 0.762545 -0.561689 -1.1836 -1.20931 -0.691197 0.599111 0.585376 1.30977 -1.10971 0.50854 -0.937521 0.219772 -0.0437906 -0.209741 -1.67986 -2.94152 -0.761413 0.278519 0.0890434 0.0573378 -0.712959 0.816679 0.613229 0.551439 0.3895 0.560495 -6.30568 -0.0920598 0.258614 0.11824 0.722191 -0.101031 0.524493 0.200508 0.126176 -1.73929 -0.832701 -1.30317 -0.54068 -0.0648493 0.0280288 -2.0493 -0.599079 -1.07686 1.69831 0.452554 -1.7068 -3.25354 -0.511123 1.42206 -1.83034 -1.12058 2.45038 -0.621177 2.11767 -1.03166 1.77943 0.995064 0.40454 -2.8361 -1.29003 0.789711 1.82805 0.563312 -2.73692 -1.83605 0.0380961 -1.08536 -1.54111 -3.77886 -0.920629 1.07988 1.57522 2.36981 -2.0873 1.13292 0.330092 2.58609 1.0455 -1.96562 -1.227 -3.14778 -0.791831 0.46771 0.59491 0.131013 -0.87239 2.65774 2.61168 0.247107 0.451873 0.786999 -3.46798 0.368737 0.34562 1.17151 1.21892 1.1631 0.412401 0.611383 1.59715 -0.871421 -1.47082 -1.56878 -0.540698 -1.34197 -1.16146 -1.46614 -1.23365 -0.13249 -0.115974 -1.79772 -1.48435 -1.62447 -0.00552002 -0.54589 -1.228 -0.715027 -1.72793 -0.881567 -1.0872 -0.115516 -0.626199 -0.138238 -0.792483 -1.39884 -0.139481 -0.690505 -0.131272 -0.947697 -1.35093 -0.804236 -0.969645 -0.873668 -0.848575 1.09766 0.519848 -0.100639 -0.0599794 -0.764782 -0.0535878 -1.02418 -0.141421 -0.133097 -1.47903 -1.05739 -0.807361 -0.437083 0.384376 -0.133346 -0.132832 -1.01654 -0.0565935 -0.101226 -0.136916 -0.125236 -0.0841311 -1.17665 -0.129485 -0.133934 -0.105336 -0.151301 -0.133483 0.125632 -0.130439 -0.00294698 -1.00779 -0.454058 -0.0286565 -0.589086 -0.776815 -1.00257 -0.547546 0.231536 2.43773 1.24278 -2.52938 -0.811226 1.67169 0.187444 -1.00042 2.42688 -0.381065 4.20199 -0.422575 0.203763 3.17392 1.14378 -1.29312 -1.52692 0.656279 -0.127999 0.323054 -0.975273 -1.45895 4.34792 -0.85486 -0.290274 -0.918166 1.36856 4.94427 2.24034 3.2382 0.0439451 2.65478 0.459353 2.09511 0.325185 -1.72998 -0.515313 0.515409 0.17264 1.17665 0.269063 0.0596794 -0.580717 2.79059 3.22498 0.0404782 2.97429 1.26515 -0.759309 0.19099 0.0733444 0.523456 2.0468 0.125028 2.20873 0.684717 7.6424 2.35474 0.0318077 -0.227985 -1.84949 -0.192445 -1.71379 1.15836 0.945038 -0.572638 -2.16017 -0.0131791 0.629039 0.0540526 -0.933384 0.772565 -0.126268 0.202112 -1.30846 -0.054762 1.19497 0.403748 -1.9961 -0.855066 0.0913693 -0.55352 -0.0662091 -1.34576 -2.29727 -0.31396 -0.808689 -1.27155 0.420861 -1.31022 0.441237 0.704945 0.649179 -1.86417 0.887571 -0.318105 0.544879 0.213292 -0.836253 -2.78753 -2.63697 -0.0959331 0.180757 0.156953 -0.0930009 -0.141214 -0.1317 0.604047 -0.0892544 0.00854233 0.449603 -4.14994 -0.0737932 -0.124844 0.128983 0.0737011 -0.0552434 0.0880375 -0.0811327 1.71239 0.0262714 0.0340273 -2.00637 -0.131702 -0.568638 -0.117174 0.980374 -2.54482 -0.404976 -0.0519585 0.457557 -0.775618 -0.658504 3.41503 -0.0340632 -0.446779 -1.32893 -0.125588 7.12648 0.288606 -3.27498 -2.66735 -0.0831709 -0.288358 -0.128803 -2.02518 -1.87343 0.279025 -0.899499 -0.949549 -2.97767 -1.13017 0.595521 0.245113 1.17704 -0.21439 0.226783 0.89685 1.30305 0.0954289 -0.347469 -2.01772 -0.762938 0.0688723 0.103462 -0.0442152 -0.0545167 -0.910441 0.447139 0.796946 -0.0666742 0.316342 0.0354146 -0.0972918 -0.0937474 -0.0380761 -0.0238276 1.05039 -0.143285 -0.299897 1.30917 0.586978 -0.162537 -0.0316284 -0.193629 -0.632208 -0.0100772 0.0627966 -0.00345563 0.0484236 -0.189819 0.0621365 -0.248098 -1.24118 0.0554571 0.0213008 0.0357884 -0.0251748 -0.148441 0.0399635 0.0243706 0.00960204 0.00296491 0.961781 -0.0941056 0.0330252 -0.316419 -0.0172961 0.0478213 -1.04993 -0.505707 0.0688628 0.0472915 -0.024166 0.0657174 0.0958076 -0.0537352 0.153996 0.159117 0.094447 0.0445885 0.0410866 -0.0213108 0.0122622 0.0331144 0.0257821 0.0492181 -0.0451404 -0.127308 0.0226961 0.0456757 -0.120592 1.09319 0.0329915 -0.0176462 0.640903 -0.0411741 -0.0561595 0.0499994 -0.0227128 0.0320736 0.0201257 0.0931906 -1.40444 0.571197 0.758356 0.32542 0.385483 -0.977561 -0.659681 -0.537874 0.77215 -0.0749969 -0.214866 1.71189 -1.69725 1.3834 -0.471753 0.496908 1.78981 1.1559 2.10694 -0.388266 2.13618 0.544587 1.08127 -0.308217 -0.521758 0.288889 -0.624192 -0.43322 0.46222 0.738999 1.41438 0.605934 0.865912 0.746597 0.584211 1.04804 1.75559 0.591163 -0.628838 0.453666 -0.417015 -0.22294 0.621538 0.570573 0.211472 -0.352477 1.2125 2.29962 0.768394 1.03004 1.02391 -1.02586 0.658098 1.24934 0.300652 2.11008 0.555054 0.988769 0.518848 0.484527 -1.53346 -2.30277 0.788067 3.2524 -2.01651 0.453088 -1.94662 2.0768 -0.847053 -2.57157 4.48094 -2.48534 7.24725 -1.03494 0.320778 5.41579 3.89659 -2.5194 -2.66146 1.99268 -1.09522 2.49228 -2.1568 -1.484 -7.70634 -1.3042 -0.993454 8.76427 1.09997 -2.91731 12.348 3.27028 -5.86281 14.5405 -1.75976 8.48273 1.25667 -6.43568 -0.939509 -2.66188 -0.550835 -1.47173 1.13555 0.239375 -0.837547 2.92106 9.66398 0.381489 5.72335 0.248771 -4.79045 0.309636 0.249298 0.451779 8.75933 1.1537 -0.92358 2.3683 6.29537 -1.72094 0.646708 0.260783 -0.212359 -2.21055 0.204759 0.452303 -0.799956 -0.431781 0.793132 -0.459091 -0.306469 -1.35094 0.454861 1.31275 0.654747 -1.20929 -1.16898 0.426834 0.233043 0.662546 -2.3496 -0.992135 0.0203654 -0.958391 -1.28957 1.14127 -0.0583288 0.614684 0.65611 1.37686 -0.444873 0.515362 1.62595 0.737023 0.200782 -1.01259 -1.54477 1.00696 0.449291 0.235664 0.130854 -0.0179362 -0.899653 0.316289 0.952527 -0.0583926 0.606133 0.487459 -0.495231 0.248068 0.00542674 0.840332 0.546704 -0.0161894 0.278446 0.197081 1.29167 1.72424 1.43224 -2.95855 1.74278 -0.180854 1.23253 0.096774 -0.96831 2.80127 -1.1541 0.488701 -1.01614 1.3191 1.09637 2.39514 -2.4515 -2.61117 1.72483 1.27819 3.36439 -2.8517 -1.86858 1.66638 -1.25388 -0.874327 -0.976229 -0.718346 2.33193 2.42849 5.07718 -4.16953 2.67042 2.07694 6.3535 1.6797 -3.29339 1.02826 -2.23736 -0.484901 0.69148 3.57367 0.845315 -0.953667 2.41946 2.02588 0.576503 2.58388 1.72999 -5.0735 1.33015 0.959201 0.466728 2.71808 0.669722 0.870403 1.85853 3.41782 0.693147 1.00068 1.99353 0.270235 0.693147 -0.00606486 0.111666 1.24912 -0.0164926 1.37225 -0.0624302 0.693147 1.0522 0.693147 1.06454 0.333844 0.693147 1.59453 0.693147 3.24129 -0.00975671 1.37786 -0.0706284 0.486461 1.22319 0.693147 0.693147 0.693147 0.693147 1.46704 0.693147 2.36669 0.693147 0.693147 1.99825 2.64878 0.80449 0.956771 0.693147 0.693147 0.693147 0.564469 0.693147 0.693147 0.693147 0.693147 0.693147 2.16892 0.693147 0.693147 0.693147 0.693147 0.693147 0.693147 0.693147 0.693147 1.16124 1.59217 0.442932 0.693147 1.14578 0.266051 1.3775 0.0541426 1.3724 0.131161 0.693147 1.0762 0.693147 1.13689 4.99792 0.693147 2.42755 0.693147 1.85461 2.06953 1.37048 0.0213257 0.603232 1.58651 0.693147 0.693147 0.693147 0.693147 1.95128 0.693147 2.36291 0.693147 0.693147 1.76395 2.09879 1.07802 0.784833 0.693147 0.693147 0.693147 2.64113 0.693147 0.693147 0.693147 0.693147 0.693147 3.15879 0.693147 0.693147 0.693147 0.693147 0.693147 0.693147 0.693147 0.693147 -3.90591 -1.85617 1.21776 0.4696 -1.95392 1.99458 -0.945683 0.900024 -0.850578 0.422614 3.624 1.66775 -2.40197 -0.691031 2.05533 -0.613113 0.280304 -1.95759 -0.939814 1.40585 -1.92827 -0.838157 -3.38348 -0.074827 2.70406 2.60239 5.69641 -1.31197 2.06648 1.02635 4.24625 1.66479 -1.73331 -0.273204 1.50229 0.98272 0.603353 1.96534 0.0745899 -1.38946 2.82112 1.65777 0.0321577 1.27386 1.31678 -4.25568 0.302781 0.439776 0.641927 3.41825 0.436235 0.97023 0.764987 4.39195 0.770986 1.66309 -0.291041 -1.16054 -6.97455 -4.95245 -7.30887 0.482763 1.86455 3.11338 1.93117 0.244153 -3.15686 1.99096 -2.68162 1.86208 -2.98549 -0.590332 -23.4283 -2.77714 -2.47269 -6.58281 6.96655 2.57034 1.66086 1.9791 -3.30192 1.96325 -3.51711 2.02935 1.89146 -1.63459 -3.9688 4.47743 1.77249 2.07544 1.89542 1.94087 -3.25189 1.86026 1.98366 2.03071 1.96862 2.1971 -2.81655 1.94201 1.91955 1.78881 2.28287 2.07185 1.77815 1.91141 2.7844 0.308296 -0.663546 -0.770332 2.01062 -0.741569 -0.352082 -1.51203 0.59254 -0.326615 0.518877 1.27284 -1.33837 0.972323 0.80834 0.0688067 -1.06569 -2.33275 1.32036 -1.25071 -1.21725 -2.70923 -0.0189965 0.651468 2.37911 0.932309 -0.369084 0.54633 -1.38198 0.622851 0.524031 -1.14338 -1.8256 -2.39923 -1.3233 0.237762 2.46259 0.0475397 -0.788279 0.770575 0.897563 0.355926 0.200757 0.514121 -4.68701 0.629076 0.151268 0.0923072 0.655558 0.272751 -0.0343067 0.136942 0.541329 0.636175 1.3638 1.81414 0.0770403 1.93468 0.333808 0.693147 1.18812 0.693147 1.26115 1.6606 0.693147 4.49707 0.693147 0.0741985 2.99922 1.97062 0.686001 0.989168 1.8637 0.693147 0.693147 0.693147 0.693147 3.0705 0.693147 1.99458 0.693147 0.693147 1.8729 2.9552 1.16923 1.01219 0.693147 0.693147 0.693147 4.34419 0.693147 0.693147 0.693147 0.693147 0.693147 4.36303 0.693147 0.693147 0.693147 0.693147 0.693147 0.693147 0.693147 0.693147 -1.40633 0.292602 -1.24445 0.348706 -0.489332 0.388744 0.475881 0.5359 0.096971 0.217833 0.953408 1.53458 0.992773 -1.11836 0.257639 0.966507 -0.659295 -0.320527 0.215185 0.565537 0.370412 0.583232 0.334052 0.484386 1.85146 1.91732 0.397464 0.626041 0.48516 1.70775 0.326517 0.0812205 0.284538 0.884189 0.767822 -0.472398 0.339928 0.316834 0.107102 0.309915 0.310715 0.74491 -0.0087576 1.05408 2.84756 0.474211 -0.0340656 0.438205 0.874431 0.802579 1.54666 -2.49366 -6.72222 -1.31504 0.0877651 -1.14188 0.315459 -3.92041 -2.41594 -0.030658 -0.703236 -0.0419111 -3.32727 -2.38345 -5.27503 -1.42777 -1.09626 2.8863 -7.03037 2.71965 -0.168953 3.00535 -1.85199 1.38582 -1.56617 0.123681 0.287701 -0.852576 -1.56873 -3.28247 -0.757738 0.501745 -0.0303323 -0.00263128 -0.347853 3.88055 0.750137 -0.0437459 -0.917325 -1.5019 -3.00079 0.0284093 0.0184084 0.713206 0.23709 0.00676782 -1.66391 -0.0189682 1.76763 0.692793 1.84351 -0.430853 1.04661 1.77067 1.29993 1.38123 3.5295 1.22974 2.99734 1.04093 -4.36521 5.6923 1.94808 -0.899023 0.535257 2.7524 5.41404 3.63898 2.2208 1.65673 2.2636 1.9719 3.33219 1.60772 0.99951 -0.899334 3.97271 1.39734 1.10655 3.40169 1.0244 0.953082 2.50835 1.37305 1.62184 1.02709 1.77615 2.17076 3.68815 1.09169 0.978671 1.15219 1.67247 1.18612 2.89354 1.07381 3.17053 1.74742 -2.67289 -0.065319 1.14012 0.843733 -2.21844 -1.47947 0.240183 -0.657895 -0.0799196 -1.60364 -0.992552 0.217628 -2.0026 -1.16943 -1.34059 -0.103843 0.282406 -0.0353166 2.17274 -2.16831 1.32788 -0.482 0.341143 0.0278556 -1.45902 -0.50867 -4.24016 -0.0297305 0.00648217 -0.0971608 -0.160446 -0.945037 0.168491 0.240232 -0.0433172 -0.00369083 0.377557 -11.5462 -0.190703 0.0183916 -0.307167 1.01018 -0.138798 -0.24233 -0.125925 1.22264 -0.436703 1.28565 1.31268 1.25352 1.30519 7.7577 1.2992 4.99932 1.21006 5.00699 3.31518 2.4523 -1.36218 -0.253836 3.31431 10.3115 3.56601 1.97433 1.7258 3.47127 2.06142 3.2583 1.6859 1.14531 0.730277 -2.94486 1.79815 1.30924 2.87747 1.14455 1.21216 3.64796 1.43035 1.50982 1.24317 1.63157 2.57998 0.656319 1.21548 1.22407 1.30252 1.66986 1.31253 2.461 1.25663 3.40713 -0.0810969 0.101298 -0.0196188 -0.538108 -0.489818 -0.0580399 -0.358062 -0.0850149 -0.758177 -0.814252 -0.129243 -1.04692 -0.467988 -0.373535 2.16236 0.514399 0.682293 -0.00524744 -0.481366 0.454298 -0.682888 0.0341582 -0.0844193 -0.714473 -0.906592 -0.125147 0.0983802 0.895694 -0.0886353 -0.0967896 -0.569145 -0.0140646 0.0869045 -0.09857 0.153183 0.89234 -0.570859 -0.0890627 -0.0894493 -0.0636915 -0.00221914 -0.0953015 0.88037 -0.0776022 0.6415 1.07077 0.693147 1.03051 0.116146 0.693147 1.26213 0.693147 0.599481 0.0142523 1.16013 -0.0667243 0.45236 1.25586 0.693147 0.693147 0.693147 0.693147 1.416 0.693147 1.25815 0.693147 0.693147 1.41721 3.19785 1.03148 0.993537 0.693147 0.693147 0.693147 0.599 0.693147 0.693147 0.693147 0.693147 0.693147 1.94482 0.693147 0.693147 0.693147 0.693147 0.693147 0.693147 0.693147 0.693147 1.00044 0.800886 1.86711 1.03089 1.26643 1.03335 -1.06899 1.66394 1.49008 -0.685153 -0.157252 2.16985 4.41698 1.53409 1.09492 1.15247 1.86662 1.21213 2.55331 1.18429 1.05568 2.32707 2.21865 1.31329 1.04003 1.47152 1.04652 1.0577 2.89468 1.06487 1.04839 1.04075 1.09538 1.48328 0.727012 1.05291 1.05619 1.06425 1.06277 1.07248 1.3321 1.06407 1.56433 1.02453 4.0509 0.693147 2.32861 0.693147 11.4624 2.45677 1.60619 -0.0696508 0.598826 1.57892 0.693147 0.693147 0.693147 0.693147 1.70575 0.693147 3.25743 0.693147 0.693147 1.49107 3.4189 1.06413 0.990023 0.693147 0.693147 0.693147 2.21332 0.693147 0.693147 0.693147 0.693147 0.693147 3.12946 0.693147 0.693147 0.693147 0.693147 0.693147 0.693147 0.693147 0.693147 -1.17748 1.07144 -1.0974 1.01564 -0.549991 -2.14802 0.904809 -0.379243 -0.852081 1.77009 6.92632 2.16246 1.40394 1.37574 -0.447603 1.43443 -1.72011 1.30648 0.985655 0.481047 6.25602 1.70536 1.38003 1.69399 0.95799 0.934619 -1.23492 1.22321 1.28911 0.9889 1.18764 1.63374 -1.56546 0.944858 0.977337 0.974115 1.19914 1.08134 1.24803 1.02214 1.71097 4.1552 -0.814185 0.219678 -2.00905 -2.37062 5.46905 -1.25674 -0.789242 -3.79818 2.09467 4.29949 2.91003 7.21531 -2.76482 3.84977 0.789861 6.68186 0.482752 -1.40586 -1.41288 3.26043 0.801687 1.19447 0.659777 0.00321366 -0.025289 2.87119 4.07412 0.0849067 2.58594 1.92163 -2.33178 0.0770357 0.0213599 0.162612 4.14573 0.000199562 1.41617 0.310005 9.52467 2.13266 0.693147 9.52632 0.5693 1.56838 -0.0800375 0.53445 1.463 0.693147 0.693147 0.693147 0.693147 1.52409 0.693147 3.2869 0.693147 0.693147 1.57616 3.23205 1.04518 0.99654 0.693147 0.693147 0.693147 1.94459 0.693147 0.693147 0.693147 0.693147 0.693147 2.68163 0.693147 0.693147 0.693147 0.693147 0.693147 0.693147 0.693147 0.693147 1.43252 -2.14344 -0.576313 11.2437 -1.01921 0.543973 -0.795103 6.81429 9.68679 5.33249 3.04821 3.42302 5.1473 2.19934 4.0405 1.25292 -2.3148 0.949807 0.471526 1.78659 6.25423 1.36245 1.00535 0.283391 2.4617 3.49078 1.18365 4.11745 6.49953 3.16083 1.22932 1.04788 1.30968 3.85033 1.37214 6.91794 1.37461 8.9311 2.74113 0.0228997 1.20476 -0.0747239 0.430623 1.26491 0.693147 0.693147 0.693147 0.693147 1.35137 0.693147 2.06668 0.693147 0.693147 1.61929 1.30227 1.03081 0.938477 0.693147 0.693147 0.693147 1.54219 0.693147 0.693147 0.693147 0.693147 0.693147 1.88881 0.693147 0.693147 0.693147 0.693147 0.693147 0.693147 0.693147 0.693147 -0.738251 -5.88559 -0.695763 -0.5522 -3.15205 -0.236326 3.98857 2.68934 8.34506 -4.39191 2.04092 -0.74848 12.0903 1.15964 -2.41377 -3.07413 -1.75204 -0.799377 1.42447 1.99479 0.174901 -1.12477 3.04826 2.58692 0.298479 3.16253 4.53975 -4.15701 1.25595 0.280909 6.51013 22.9153 1.19033 1.47903 3.27979 5.2668 1.58204 -0.918582 -0.635256 -1.21885 0.758578 2.80653 1.57266 5.4896 -1.0618 1.12695 -0.347067 4.31139 0.060589 0.219875 -0.889869 1.34745 2.1421 1.65317 0.0455762 -0.0396809 -0.683875 0.573989 3.40615 -0.0268664 1.90263 1.9955 -1.69385 -0.00625239 -0.0926025 -0.00156587 3.11867 -0.0353111 2.29621 0.0168984 4.53768 0.17257 -0.15584 2.89401 14.4425 3.70864 1.87597 1.78454 5.63254 2.28924 3.3619 1.94173 1.19396 -1.84364 2.13977 1.67487 0.892538 3.23127 1.2015 1.16429 4.04583 1.50541 1.55621 1.28763 1.91565 3.11235 2.05597 1.26525 1.18714 1.13294 2.14862 1.35611 2.88204 1.29007 3.29086 -0.95524 -0.749281 4.86962 2.51397 0.57322 0.348404 -1.4687 0.938991 -1.1564 -0.0232775 -0.084578 -2.06633 -1.32537 -0.780469 -0.381157 2.04712 -0.0798008 -0.0840863 -0.869688 0.0799209 0.234082 -0.085675 0.0552521 1.31665 -1.21257 -0.081676 -0.0765656 -0.0448661 -0.0598911 -0.0779661 1.17649 -0.0780811 2.3034 -0.618251 -96.9489 2.19814 1.15475 0.742429 -0.00165162 1.01848 -0.618706 0.806997 0.452759 -2.59057 -1.2618 -0.0043369 -0.310651 3.40296 0.453884 0.399642 0.0438142 0.634556 0.761062 0.423226 0.919977 3.06887 -0.328169 0.441822 0.40895 0.45951 0.774062 0.444701 1.73637 0.430782 1.75871 4.78721 3.50106 2.30767 1.61901 1.14638 1.81776 2.04119 1.82458 1.31123 -1.84213 1.5385 1.92448 1.21316 3.04955 1.27196 1.21249 -0.92734 1.33504 1.45842 1.21028 1.94976 3.12639 -1.88834 1.24162 1.19615 1.26853 1.77026 1.18972 2.44489 1.30314 2.68857 0.693147 0.693147 0.693147 10.2754 0.693147 4.57513 0.693147 0.693147 9.10062 1.56333 2.23723 3.07825 0.693147 0.693147 0.693147 1.38413 0.693147 0.693147 0.693147 0.693147 0.693147 16.4729 0.693147 0.693147 0.693147 0.693147 0.693147 0.693147 0.693147 0.693147 0.693147 0.693147 5.74394 0.693147 12.4967 0.693147 0.693147 1.51327 4.61201 1.54283 1.21988 0.693147 0.693147 0.693147 3.90383 0.693147 0.693147 0.693147 0.693147 0.693147 11.9952 0.693147 0.693147 0.693147 0.693147 0.693147 0.693147 0.693147 0.693147 0.693147 3.49062 0.693147 5.81223 0.693147 0.693147 2.34754 2.00229 1.20832 0.974655 0.693147 0.693147 0.693147 3.50447 0.693147 0.693147 0.693147 0.693147 0.693147 6.79829 0.693147 0.693147 0.693147 0.693147 0.693147 0.693147 0.693147 0.693147 2.3579 0.693147 3.8318 0.693147 0.693147 1.48225 3.88367 1.12116 1.04149 0.693147 0.693147 0.693147 2.80448 0.693147 0.693147 0.693147 0.693147 0.693147 4.40448 0.693147 0.693147 0.693147 0.693147 0.693147 0.693147 0.693147 0.693147 3.11037 5.0909 2.17866 1.35602 -2.36374 2.10357 2.00364 1.01869 5.8236 1.22206 1.19284 0.852922 1.98866 2.24681 1.15059 2.50851 4.85779 3.30852 1.31208 1.18847 1.49098 1.89506 1.3904 4.63231 1.43667 5.3676 3.84252 0.693147 0.693147 1.9813 1.96624 1.19579 0.982467 0.693147 0.693147 0.693147 5.28153 0.693147 0.693147 0.693147 0.693147 0.693147 6.6547 0.693147 0.693147 0.693147 0.693147 0.693147 0.693147 0.693147 0.693147 5.2304 1.59728 -0.629668 3.32994 3.59852 1.50368 2.64364 1.89263 0.994021 3.36754 1.87923 2.5893 1.45884 2.53248 6.31503 3.95761 1.1128 1.20167 1.49633 2.71574 1.92673 4.82596 2.10732 4.84112 0.693147 1.81845 3.03064 1.1356 1.03789 0.693147 0.693147 0.693147 3.98532 0.693147 0.693147 0.693147 0.693147 0.693147 5.06733 0.693147 0.693147 0.693147 0.693147 0.693147 0.693147 0.693147 0.693147 1.51252 1.41048 1.023 0.971134 0.693147 0.693147 0.693147 0.976157 0.693147 0.693147 0.693147 0.693147 0.693147 1.93283 0.693147 0.693147 0.693147 0.693147 0.693147 0.693147 0.693147 0.693147 -3.56796 2.3058 2.28551 0.00525671 1.59498 1.53917 -1.10038 1.38106 1.85292 1.55029 1.73912 2.19216 -2.13611 1.7073 1.62786 1.65554 1.78592 1.65581 1.40703 1.52868 2.94312 -1.4611 2.28003 3.48334 1.33616 0.92131 -0.416617 2.08206 3.47992 0.771051 6.64105 11.1505 -0.944104 1.65055 1.30827 1.89985 4.40489 1.36386 1.15749 1.83653 8.57056 1.45109 1.43143 1.02775 0.945796 0.215832 1.07358 1.09417 0.866508 1.10165 1.2904 1.95852 0.927736 0.958306 0.928968 1.11991 0.724839 1.32737 1.01812 1.49396 1.17438 0.989426 0.408559 -0.0513203 1.01934 1.0227 0.103916 1.03422 1.13606 1.57535 0.898298 0.765238 0.867856 0.993798 0.406282 1.12728 0.984428 1.1772 0.693147 0.693147 1.60709 0.693147 0.693147 0.693147 0.693147 0.693147 7.26204 0.693147 0.693147 0.693147 0.693147 0.693147 0.693147 0.693147 0.693147 0.693147 0.852509 0.693147 0.693147 0.693147 0.693147 0.693147 1.77917 0.693147 0.693147 0.693147 0.693147 0.693147 0.693147 0.693147 0.693147 0.199854 0.693147 0.693147 0.693147 0.693147 0.693147 1.43521 0.693147 0.693147 0.693147 0.693147 0.693147 0.693147 0.693147 0.693147 1.87524 2.93371 0.150025 0.443329 3.03806 -0.334982 0.559068 0.199824 0.746668 3.09479 0.330873 3.4676 1.53897 6.94238 0.693147 0.693147 0.693147 0.693147 2.9249 0.693147 0.693147 0.693147 0.693147 0.693147 0.693147 0.693147 0.693147 0.693147 0.693147 0.693147 4.42754 0.693147 0.693147 0.693147 0.693147 0.693147 0.693147 0.693147 0.693147 0.693147 0.693147 1.58694 0.693147 0.693147 0.693147 0.693147 0.693147 0.693147 0.693147 0.693147 0.693147 3.96754 0.693147 0.693147 0.693147 0.693147 0.693147 0.693147 0.693147 0.693147 8.12807 0.693147 0.693147 0.693147 0.693147 0.693147 0.693147 0.693147 0.693147 1.74006 1.49402 2.02541 4.28369 1.83007 8.04177 1.88421 10.8031 0.693147 0.693147 0.693147 0.693147 0.693147 0.693147 0.693147 0.693147 0.693147 0.693147 0.693147 0.693147 0.693147 0.693147 0.693147 0.693147 0.693147 0.693147 0.693147 0.693147 0.693147 0.693147 0.693147 0.693147 0.693147 0.693147 0.693147 0.693147
probB -4.03878 -2.35648 -2.31215 -2.07027 -2.9184 -4.59453 -6.42852 -3.62636 -6.39552 -2.85513 -4.17633 -3.70005 -2.9492 -4.3978 -2.9705 -3.78886 -4.04152 -4.0936 -5.18937 -2.4871 -3.49145 -2.5877 4718.47 -5.19491 -5.02534 0.406284 -3.46638 -5.55936 -5.37437 -3.65744 -6.25091 -2.63249 -6.02551 -2.49609 -6.05829 -6.26428 -5.31101 -4.55744 -3.64388 -5.47945 -5.57875 -5.96943 -5.53099 -4.96998 -5.45785 -3.18024 -5.65284 -5.21322 -6.07251 -5.92683 3381.3 -4.66101 -4.86651 -5.86782 -5.45659 -5.22169 -5.34104 -5.4539 -3.28163 -5.82807 -6.5237 -3.13889 -6.3719 -6.44389 -3.51012 -5.34146 -4.86387 -6.4262 -5.10232 -3.4941 -3.75722 -6.44861 -6.35091 -6.02426 -5.28972 -6.26664 -4.02721 -5.91523 -5.94918 -1.38213 0.291618 0.20305 -0.406572 -1.61154 -4.05951 -0.910459 -1.74548 -0.526033 -0.158963 -0.0097672 -0.160997 -1.293 -1.42697 -0.121454 -0.108454 -0.0895172 -1.0727 -0.61633 0.014102 -0.628174 -2.69545 -3.21402 -0.480146 -0.785003 0.0162451 -3.08526 -1.70621 -0.52458 -3.05236 0.100779 -2.17016 -1.16192 -2.6315 -3.99579 -3.03698 -1.78396 -0.898173 -2.95645 -2.16495 -2.73337 -1.0898 -0.730028 -2.31563 -1.16441 -1.54567 -1.32542 -2.69469 -3.21685 -2.59462 -3.19543 -2.37101 -3.71178 -1.92165 -2.84558 -2.69493 -1.86649 -0.722953 -2.04182 -2.4857 -3.00608 -2.72541 -2.74041 -1.26375 -2.97886 -3.00241 -2.68908 -3.39549 -2.87731 0.0567255 -2.5828 -2.74025 -2.64429 -3.79349 -2.5064 -3.11186 -2.76779 -4.09159 1.863 2.94389 0.789542 0.321556 4.19317 0.5311 0.935428 0.901802 1.75338 0.562152 0.816387 0.402493 0.339623 0.465555 1.1722 2.35218 1.07014 0.708218 2.47687 0.918978 -3.91746 -6.3771 0.864607 1.05735 2.68825 -13.583 0.474782 0.677059 -4.44111 1.25067 2.47826 0.34439 -2.67443 0.957346 -6.54573 0.597224 0.456369 -4.96192 -2.3902 -2.50127 0.0462997 0.744462 5.04491 0.339133 0.263163 1.41792 -51.6696 -35.7008 -7.24885 -11.5271 2.28375 -10.7909 1.10831 -12.0663 -1.86284 1.06821 0.855479 0.199205 -2.47255 -7.39687 -1.85712 -0.600157 0.284856 -7.25957 -9.45352 -1.84432 -12.8564 -6.74743 3.25991 -2.15202 -1.20094 -3.09754 -9.07758 -3.10742 -18.3684 -2.17476 -29.4088 0.0839251 -0.134653 -2.18275 -2.89773 -1.75196 -1.89532 -1.39405 0.0216609 -0.410733 -0.252848 -1.3872 -1.89283 0.163646 0.278679 -0.168788 -2.06189 0.620583 -0.0257688 -0.957093 -3.22972 -3.39572 -1.67063 -2.59708 -0.27725 -3.22125 -2.21561 -0.538031 -3.10819 0.742598 -2.80273 -2.06321 -2.96213 -5.48829 -3.47913 -2.10148 -2.04544 -3.45647 -3.08978 -3.55571 -0.210992 -1.78173 -3.03054 -1.6228 -1.53244 -3.2318 -3.35 -3.49204 -0.412955 -3.54113 -2.56372 -1.41897 -2.51333 -3.38751 -3.49014 -2.32069 -1.90602 0.46792 -2.52451 -1.83962 -3.50185 -3.23995 -1.75883 -3.46359 -3.46672 -3.29725 -3.435 -3.33674 -1.26922 -3.04354 -3.31805 -3.26026 -3.53304 -3.13396 -3.41106 -3.44091 -3.58412 -0.505325 -1.52168 -3.75388 -0.870511 -1.91699 -0.998742 -0.623439 -0.318624 -0.394156 -1.41828 -1.71797 0.302311 0.119815 -1.07761 -2.81792 0.138727 -0.677181 -0.804694 -3.11343 -3.34887 -0.962093 0.836655 -0.353832 -3.29173 -3.5278 -0.0214257 -7.88811 0.20384 -3.80809 -1.55275 -3.03275 -4.88839 -3.4353 -1.92161 -0.578481 -2.71815 -2.80401 -3.35896 -1.18349 -1.88475 -4.4768 -1.15294 -1.82491 -2.65198 -1.46378 -3.36151 -3.35188 -3.15071 -2.08163 -3.25274 -4.20169 -3.30169 -3.02907 -1.25762 -0.992704 -3.30899 -4.45439 -3.44057 -3.38084 -3.55504 -2.73294 -3.50728 -3.09368 -3.54109 -3.45669 -2.88456 1.90801 -3.47285 -3.51064 -3.27887 -3.05454 -3.22813 -2.88082 -3.25585 -2.25468 1.77527 -3.21421 -0.385953 2.28335 0.0649095 0.458934 0.182193 0.156778 -0.451288 -1.16548 0.306351 0.125625 0.538685 -1.11437 -0.0933552 0.45332 -0.353967 -4.15245 -2.74685 0.0505093 1.25632 0.5435 -2.66151 -2.68665 -0.0574826 -4.35867 0.0600819 -3.45221 -0.813646 -3.49601 -3.73211 -3.11534 0.537437 -0.537633 -2.77407 -3.07253 -2.83306 -0.507189 -0.355315 -0.780445 -0.583082 -1.09005 1.05041 0.145461 -3.37171 -3.31818 -5.43421 -1.04894 -3.56615 -2.49124 -5.26142 -3.55172 1.17822 -0.626764 0.75578 -4.89666 -2.89453 -4.38063 -2.38376 -2.07118 -5.62245 -3.71918 -2.51167 -3.27865 -2.02586 2.07227 -2.66747 -2.52805 -2.75736 -5.35644 -2.50452 -2.7128 -2.63738 -3.96239 -0.446708 0.0890275 -0.303013 1.35646 1.79253 1.91048 1.07149 0.0737651 0.248426 1.30162 1.90849 2.04496 0.773555 0.0515247 1.10115 0.327754 -1.57006 -1.2652 0.655554 0.15192 1.24576 -1.27714 0.295057 0.249328 0.171598 1.13347 -0.0652854 0.138287 -1.4633 -0.849249 -1.64537 0.0332354 0.262968 -1.70141 -0.0961328 -1.40702 -0.01522 0.704579 -0.0982818 0.12146 -0.436977 0.348073 -5.26057 -2.58844 -1.40653 -1.6924 0.23411 -1.54952 0.777463 -1.87846 -1.48042 0.136754 0.119614 -0.901403 -1.43531 -1.7878 -1.4036 -1.57064 0.285437 -1.30403 -1.3843 -1.68016 -1.34125 -2.01467 0.105969 -1.45471 -1.54695 -1.40434 -2.01051 -1.55049 -1.50002 -1.46778 -1.93899 -1.26031 0.462396 1.67033 2.41884 2.335 0.273071 -0.0669299 1.08927 2.56938 2.55478 2.37866 1.37537 -0.991009 3.41094 1.25195 -0.604818 -0.452515 2.50093 0.420012 1.78634 -0.586162 0.661983 -9.24297 1.7888 3.70919 1.33008 1.02439 -0.54307 0.304036 -0.427747 0.71615 1.31228 -0.47629 -3.34088 -0.490071 -1.28313 2.46451 1.47609 -2.44761 -1.46462 1.71039 -3.735 -0.874161 -0.672991 -0.597016 5.9947 -0.655557 0.175996 -0.618854 -0.494698 0.966271 -0.614328 0.0271318 -0.140326 -0.663539 -0.476432 -0.538399 1.53764 -0.461433 -0.518911 -0.542932 -0.471601 -0.704218 -4.67729 -0.55574 -0.541914 -0.546138 -0.602215 -0.621466 -0.580325 -0.516893 -1.10159 0.476592 0.575494 1.39976 1.74698 0.716306 0.00459212 -0.00523929 1.23579 1.20148 1.79716 0.652665 0.267587 0.603142 0.265271 -1.19227 -1.50085 0.258093 1.04303 1.30202 -1.94193 0.214129 0.480612 -0.449196 -0.868289 -0.407872 -0.0113213 -1.16858 -1.00249 -1.52463 -0.0456531 -0.106149 -1.39689 -0.281832 -1.21599 -0.156234 0.553853 -0.164893 0.010725 -0.0973257 -0.0661091 -3.99721 -3.47139 -1.9091 -1.56538 -0.14978 -1.95916 0.19741 -1.62387 -1.21116 1.33754 0.289897 -0.296297 -1.61968 -2.92822 -1.19296 -1.12353 -0.0214796 -1.48225 -1.63389 -1.15447 -1.8525 -2.69781 0.00161206 -1.17847 -1.12833 -1.14987 -1.70559 -1.16166 -2.59454 -1.21915 -2.80657 1.83207 1.82112 1.8097 -0.561439 -0.144245 -0.93311 1.34034 1.84685 2.03079 1.14326 -5.65342 -0.370274 -0.459078 -1.30516 -1.06006 0.0634094 0.0550006 1.04949 -1.16997 0.174169 -1.30017 -0.348472 -2.78508 -0.180729 -0.096032 -1.17351 -0.14199 -1.29795 -0.290083 -0.0788947 -1.28113 -0.78209 -1.13945 -0.419002 1.19558 1.30392 0.00509248 -0.267751 -0.329839 -5.2136 -2.23326 -1.389 -1.42676 -0.423023 -1.07815 -1.10701 -1.58757 -1.1898 0.154265 -1.62027 -0.517555 -0.483281 -1.67271 -1.16178 -1.11982 -0.515882 -1.15725 -1.23979 -1.09765 -1.40244 -2.01003 -0.305772 -1.16102 -1.11142 -1.22362 -1.35631 -1.11289 -1.38691 -1.21639 -1.34547 0.627066 0.82401 0.522935 -0.375207 -1.40255 0.310797 0.315675 1.02824 -0.171659 -0.428377 0.746466 -0.0143139 -1.76286 -3.02893 -0.080893 -0.861633 0.293765 -3.1802 -1.03236 0.369171 -2.19346 0.614552 -1.69352 -0.816819 -2.03888 -3.5061 -2.23348 1.10072 -0.768936 -2.70057 -1.08043 -1.93969 -0.310754 -0.26759 -2.62375 -0.495079 -0.760187 -3.06559 -2.32095 -6.47141 -2.42823 -4.15661 -1.18207 -3.33038 -1.29727 -2.88815 -2.31069 -0.918463 -0.186366 -1.61293 -3.35361 -2.26638 -2.00131 -1.81367 -0.670912 -3.39429 -5.36684 -1.68457 -2.62342 -2.30722 0.472711 -1.81519 -1.67105 -1.90993 -2.63439 -1.70697 -2.46682 -2.26403 -4.88183 0.158148 -0.0745696 -1.43798 -1.79289 0.0793484 0.0454622 0.0498588 -1.08916 -0.46765 0.106703 -0.943481 -2.83789 -3.3024 -0.826942 -2.07859 0.123827 -2.92769 -1.06807 -0.461747 -2.75228 0.197984 -2.32291 -1.59331 -2.64449 -2.5143 -3.29518 -2.43827 -1.69642 -2.8423 -2.09404 -2.74876 -0.245265 -1.3509 -3.0562 -1.68838 -1.67285 -1.42452 -2.8103 -2.9561 -2.86014 -2.86806 -2.28416 -3.20454 -1.79943 -2.88951 -2.67974 -1.99884 -0.99219 -1.25626 -2.6478 -2.80934 -2.72762 -2.64343 -1.33105 -2.80223 -2.68445 -2.57006 -2.88178 -2.79014 0.174233 -2.61682 -2.64141 -2.99771 -2.88735 -2.56919 -2.87485 -2.69476 -3.12169 0.0300331 -1.47791 -1.67654 -0.073964 -0.0744249 -0.0984537 -1.11483 -0.549754 -0.0912898 -0.99521 -2.84268 -3.16189 -0.819554 -2.04937 -0.0421235 -2.89266 -1.36577 -0.528357 -2.69501 0.131419 -2.39267 -1.21901 -2.76557 -2.36925 -3.86443 -0.964396 -0.742175 -3.32674 -2.30299 -3.06511 -0.853701 -1.27224 -3.05204 -1.65107 -1.37715 -1.50748 -2.08557 -3.36352 -3.36272 -4.03504 -1.38991 -3.30743 -1.14699 -3.01526 -2.75613 -1.95258 -0.590556 0.0984526 -1.65342 -3.06644 -2.89031 -2.86122 -1.77426 -3.58851 -3.36589 -3.28694 -3.15588 -3.34346 2.90694 -2.70544 -3.04373 -2.91653 -3.49695 -2.70312 -3.29425 -2.97628 -2.91708 -0.705527 -1.33139 0.11611 0.11304 0.299887 -0.986673 -0.321484 0.128864 -0.497238 -3.96777 -2.86137 -0.385246 0.385268 0.233515 -3.75523 -0.514446 -0.353126 -4.27238 0.267581 -4.01942 -0.92219 -4.07299 -2.93357 -2.84283 0.0437557 -0.938929 -3.18907 -3.52415 -2.98333 -0.313313 -0.324356 -2.07534 -1.16807 -1.099 0.770018 -1.5147 -3.51264 -3.99239 -4.61211 -0.343325 -3.51174 -1.67286 -4.97716 -3.37744 -0.350856 -0.604225 0.493532 -1.37924 -2.91355 -2.97872 -2.58674 -1.27495 -4.96677 -4.93903 -2.68836 -2.88145 -3.21428 1.12638 -2.78746 -2.74151 -3.51739 -3.65439 -3.54615 -2.86643 -3.05483 -3.99512 -0.00585435 1.07456 1.07282 1.70301 0.330131 0.457919 1.14555 0.481005 -0.843472 -0.874271 0.146525 0.0293645 1.03549 -1.00603 0.309419 0.813087 -0.164681 1.17493 -0.107583 0.0419536 -0.867948 -0.111055 -0.844246 -0.087538 -0.0444738 -0.83904 -0.267015 -0.843345 -0.161362 0.0921231 -0.144211 -0.0280226 -0.053283 -0.240325 -2.07169 -1.46835 -0.902432 -0.946504 -0.177887 -0.955557 -0.141965 -0.847597 -0.841953 0.190312 0.32506 -0.0626488 -0.288718 -1.35462 -0.83996 -0.836923 -0.167616 -0.94908 -0.893325 -0.830797 -0.86941 -0.923877 -0.111047 -0.844797 -0.835485 -0.881329 -0.832516 -0.837137 -1.12662 -0.845135 -1.00865 1.37836 1.57923 2.01267 0.70234 0.721714 1.47162 0.831529 -0.940657 -1.97869 1.62797 0.524087 1.61921 -1.8003 0.173903 1.00266 -1.37435 1.84819 -1.37867 -0.0501839 -0.906958 -1.73411 -1.51895 0.0939418 -0.316939 -1.1678 -0.260854 -0.930695 0.0618793 0.235889 -1.5703 -0.016588 0.0542019 -0.0181396 -2.00128 -4.92038 -2.16862 -2.89593 -0.33913 -2.61958 0.319041 -2.24518 -0.953622 0.435157 0.504154 -0.590275 -0.415629 -1.63802 -0.910219 -0.812413 0.119096 -2.19186 -2.56678 -0.802015 -2.57249 -1.7339 0.226117 -0.892656 -0.82185 -1.09313 -2.2838 -0.865565 -2.38183 -1.12351 -7.16363 0.0852771 0.0167596 -1.04004 -0.640532 0.0292955 -0.44463 -3.75065 -3.57686 -0.818397 -0.772235 0.00666822 -3.32087 -1.81776 -0.482898 -3.01 0.209919 -2.48795 -1.32967 -2.67314 -3.35543 -3.10249 -0.699331 -1.36481 -2.81907 -1.73465 -2.66162 -0.963148 -0.341427 -2.07385 -1.52061 -1.26974 -2.71553 -1.39047 -3.15062 -3.37869 -3.34302 -0.71139 -3.52154 -1.5642 -3.23489 -2.93035 -1.35663 -0.267117 -0.00978143 -2.22268 -2.90294 -2.88219 -2.61469 -1.84635 -2.59371 -3.31844 -2.61529 -2.73805 -3.16665 1.19549 -2.65136 -2.59229 -2.85607 -2.80278 -2.67312 -2.8168 -2.64617 -4.35446 0.00973847 -1.27722 -0.434116 0.0315685 -0.818508 -2.60931 -3.56771 -0.190686 -2.02121 0.024096 -3.15227 -1.15952 -0.401732 -5.57706 0.212561 -1.9218 -1.18256 -2.59594 -9.15762 -3.0099 0.260284 -0.414502 -2.64424 -2.02373 -2.5876 -0.859985 -0.46938 -2.5449 -1.4997 -1.52672 0.104775 -1.57673 -3.27702 -2.96823 -3.82068 -2.14526 -2.92766 -2.49928 -3.99649 -2.82254 -1.73723 -0.35852 -1.67585 -2.40105 -2.82961 -2.6837 -2.64619 -1.42669 -3.15499 -3.45709 -2.64216 -3.03991 -2.7649 -1.90392 -2.61852 -2.68108 -2.70514 -3.73445 -2.56394 -2.42258 -3.93899 -3.29108 -1.13087 -1.04997 -0.036088 -0.870772 -2.75779 -2.80893 -1.15852 -2.37865 0.054953 -2.81393 -1.69272 -0.400685 -2.37684 0.199635 -2.36585 -1.81047 -2.61183 -2.3652 -2.77447 -2.35598 -1.79741 -3.70541 -2.25129 -2.78088 -1.70413 -1.42966 -2.38002 -1.37295 -1.61184 -2.39893 -2.80286 -2.74374 -2.81935 -2.844 -2.31567 -2.89943 -1.90962 -2.84104 -2.79542 -2.05474 -1.42305 -2.35849 -2.35714 -2.77808 -2.79447 -2.70998 -1.98901 -2.77308 -2.79637 -2.64105 -3.84636 -2.7849 -2.0325 -3.3708 -2.71539 -2.70178 -2.80146 -2.72956 -2.78539 -2.76985 -2.8446 -0.426184 1.62893 0.60116 -1.67314 -1.70974 -0.151283 -0.791404 0.970767 -1.98216 -0.520257 0.570734 -2.13913 0.301529 -1.7565 -0.641156 -1.72098 -2.19752 -2.32776 -2.45534 -0.62404 -2.89727 -1.3344 -2.21892 -0.54443 -0.26177 -1.20709 -0.702995 -0.778861 -1.28755 -2.20795 -2.73619 -1.95423 -2.13794 -1.39604 -1.89331 -0.71146 -2.93655 -1.83327 -0.542305 -0.123112 -0.879457 -1.01499 -2.0241 -1.84073 -1.61154 -0.774341 -2.29834 -3.24715 -1.98766 -2.30307 -2.36015 -0.311676 -1.83583 -2.09418 -1.63812 -3.14547 -1.94866 -2.26893 -1.80247 -1.86488 0.792752 0.183521 -2.4577 -4.72267 0.120396 -1.77148 0.519752 -3.73539 -0.623565 0.355223 -5.28795 0.362862 -7.78439 -0.399313 -2.04052 -6.37077 -5.45926 0.555049 0.157805 -3.57217 -0.428464 -3.64925 -0.158993 0.150213 4.42813 -0.447765 -0.782522 -9.53166 -2.83592 1.18697 -13.8036 -4.71512 2.69449 -16.0258 0.251447 -10.0325 -2.81674 4.60282 0.0438976 0.883943 -0.991701 -0.23942 -2.68193 -1.93997 -0.772461 -4.48705 -11.1144 -2.0465 -7.24422 -1.99428 2.36913 -2.03842 -1.95092 -2.17861 -10.2851 -2.7645 -0.79209 -3.73133 -7.82719 -0.45256 -3.3561 -2.96735 -1.01918 -0.624634 -0.0245267 -3.12098 -1.16781 -0.597671 -3.03706 0.0867269 -2.06777 -1.25156 -3.14152 -3.48629 -3.31974 -1.41395 -1.31243 -3.14596 -2.51815 -3.32116 -0.805384 -1.02077 -2.33203 -1.36878 -1.3517 -3.35052 -2.671 -3.30324 -3.35059 -3.99322 -1.95734 -3.21832 -3.09563 -3.45183 -2.92015 -1.25091 -0.6216 -3.24613 -2.74363 -2.95192 -2.85791 -2.71109 -1.43841 -3.0201 -3.62075 -2.66784 -3.28612 -3.19711 -1.59956 -2.96617 -2.73493 -3.52385 -3.24513 -2.7133 -2.99139 -2.91295 -3.98035 -3.23246 -2.98108 -0.0866479 -2.90711 0.953037 -2.89082 -0.806318 0.105553 -3.44349 0.749904 -1.67727 -0.624235 -2.86284 -2.21723 -3.762 0.283758 -0.400981 -3.2519 -2.34512 -4.15042 -0.585574 0.0445039 -2.62942 -0.360581 -0.760782 -0.657255 -1.01213 -3.92506 -3.88342 -6.19502 1.55413 -4.20216 -1.92174 -7.65527 -3.14201 1.05707 -0.467893 0.302673 -1.03888 -2.41152 -4.3778 -2.33025 -0.533531 -3.81007 -3.43744 -2.15501 -4.12421 -3.36524 2.03876 -2.7663 -2.39934 -2.13812 -4.25576 -2.30393 -2.57076 -3.27343 -4.98851 2.3919e-16 2.4681 1.30052 2.96509 2.3919e-16 1.00545 2.27518 0.597683 2.92392 0.766683 0.93801 2.3919e-16 0.643687 2.3919e-16 0.853064 1.3095 2.3919e-16 0.992415 2.3919e-16 3.84481 1.36154 0.70457 0.933688 1.0811 0.92147 2.3919e-16 2.3919e-16 2.3919e-16 2.3919e-16 0.872556 2.3919e-16 2.24629 2.3919e-16 2.3919e-16 1.61612 3.32603 0.717843 0.279406 2.3919e-16 2.3919e-16 2.3919e-16 1.11521 2.3919e-16 2.3919e-16 2.3919e-16 2.3919e-16 2.3919e-16 1.65163 2.3919e-16 2.3919e-16 2.3919e-16 2.3919e-16 2.3919e-16 2.3919e-16 2.3919e-16 2.3919e-16 2.55163 0.90161 3.13634 2.3919e-16 1.60819 2.42878 0.732236 2.99439 0.736046 1.11905 2.3919e-16 0.475949 2.3919e-16 0.858613 4.79641 2.3919e-16 1.73562 2.3919e-16 2.56477 2.96448 0.683323 1.03263 1.19775 0.995123 2.3919e-16 2.3919e-16 2.3919e-16 2.3919e-16 1.36931 2.3919e-16 2.40606 2.3919e-16 2.3919e-16 1.36438 3.04956 0.511419 0.114626 2.3919e-16 2.3919e-16 2.3919e-16 1.96701 2.3919e-16 2.3919e-16 2.3919e-16 2.3919e-16 2.3919e-16 2.5831 2.3919e-16 2.3919e-16 2.3919e-16 2.3919e-16 2.3919e-16 2.3919e-16 2.3919e-16 2.3919e-16 1.14206 0.476018 -2.67662 -1.02384 -0.186216 -2.49012 0.917015 -1.78849 -0.497121 -1.98629 -4.05813 -3.0689 0.319774 -0.704482 -3.2733 -0.811642 -1.857 -0.245558 -0.0709249 -2.14996 -0.124399 -0.557824 0.87117 -1.56103 -4.10469 -3.78326 -6.77131 -0.360374 -3.48136 -0.965017 -5.50536 -2.86337 0.178922 -0.242189 -2.32431 -1.8711 -2.19063 -2.83701 -1.69922 -0.214905 -3.93492 -2.97968 -1.66765 -2.68809 -2.84151 1.32261 -1.87306 -1.94317 -2.19063 -4.84284 -2.00145 -2.51403 -2.2032 -5.71202 3.05925 -0.987728 0.502408 1.04158 -1.29673 -1.38964 -1.26651 0.703377 -1.17813 -0.133078 -1.24112 0.0176262 -1.06836 -1.30544 -0.97797 -1.1693 -1.01493 0.660718 -4.98542 -0.778622 -0.764602 -1.06014 -6.31029 -1.88034 -0.968606 -1.32639 -0.861098 -1.2795 -1.2643 -1.35788 -1.20141 0.125773 -1.40699 -0.749313 -0.711778 -1.39981 -1.20228 -1.25158 -0.853879 -1.17795 -1.30157 -1.3381 -1.28776 -1.505 -0.813872 -1.24891 -1.23092 -1.10209 -1.59053 -1.38503 -1.09002 -1.21915 -2.11304 -3.01524 -1.56077 -0.622375 -4.18036 0.0437237 -2.03696 -1.05521 -3.28914 -2.04094 -3.19685 -3.48955 -1.25132 -3.63056 -3.03214 -2.79776 -1.23756 -0.345623 -3.5312 -1.37204 -1.45567 -0.259285 -2.71051 -3.3486 -5.0386 -3.55834 -2.01386 -3.22119 -0.929128 -3.33229 -3.22651 -1.18137 -0.573822 -0.386417 -1.19086 -2.96228 -5.01569 -2.77561 -1.57797 -3.44277 -3.6156 -3.05801 -2.92696 -3.22511 1.66548 -3.32706 -2.87591 -2.82038 -3.3553 -2.99583 -2.69514 -2.85414 -3.22073 1.36904 3.50248 1.3719 3.01726 1.24198 1.2617 2.3919e-16 0.643997 2.3919e-16 0.791201 2.37725 2.3919e-16 3.8206 2.3919e-16 1.07399 3.57404 1.28829 1.58795 1.58369 1.26713 2.3919e-16 2.3919e-16 2.3919e-16 2.3919e-16 2.38977 2.3919e-16 2.45106 2.3919e-16 2.3919e-16 1.50291 3.8398 0.618456 0.35293 2.3919e-16 2.3919e-16 2.3919e-16 3.70757 2.3919e-16 2.3919e-16 2.3919e-16 2.3919e-16 2.3919e-16 4.08809 2.3919e-16 2.3919e-16 2.3919e-16 2.3919e-16 2.3919e-16 2.3919e-16 2.3919e-16 2.3919e-16 0.431635 -0.541735 1.19568 -0.59554 -0.250573 -1.06412 -0.623635 -1.22968 -0.581414 0.196885 -1.40769 -0.908679 -1.27 0.038042 0.551005 -0.862221 -0.318564 -0.0946888 -0.583598 -1.42031 -1.21085 -1.31243 -1.14583 -0.43348 -2.30627 -0.441541 -1.16397 -1.17033 -0.147405 1.00601 -0.626467 -0.59967 -1.12297 -1.18039 -1.36501 -0.146689 -1.08642 -1.1136 -1.09907 -1.1125 -1.14474 -0.0579159 -1.0026 -1.51315 -2.77463 -1.25559 -0.973559 -1.25154 -1.31227 -1.57529 -3.22388 -0.0859188 4.14366 -0.63072 -2.2523 -0.654767 -2.4454 1.52918 -0.26205 -2.13603 -1.18544 -2.12445 -0.276941 0.314862 2.80254 -0.562169 -0.973753 -4.46722 4.9423 -4.86096 -1.9969 -5.05918 -0.27722 -3.53253 -0.0752064 -2.29005 -2.44261 -0.927394 -0.157397 0.986156 -1.1159 -2.60954 -2.13609 -2.16409 -1.14923 -5.82713 -2.80501 -2.12138 -1.23231 -0.649061 0.861009 -2.19454 -2.18473 -2.76519 -2.40174 -2.17348 -0.490374 -2.1477 -3.91149 3.21449 -0.0137621 0.284488 -0.35979 -0.280069 -0.662263 -0.0911135 3.15263 -0.556641 1.18215 -0.353658 -2.50916 3.4377 -0.00461425 0.0434312 0.660739 0.0716157 -5.4746 -2.95209 -1.53875 -1.05986 0.515354 -1.52939 2.29963 -0.91687 -0.309223 0.425004 3.54935 -0.284638 -0.191377 -2.76121 -0.335754 -0.260689 1.22416 -0.779108 -0.998229 -0.339362 -1.12251 -1.8896 1.66827 -0.418049 -0.287328 -0.486909 -1.02662 -0.528956 -2.24569 -0.388235 -2.68437 -4.19058 0.0877637 -2.87427 -3.54163 -3.72942 -0.74239 -1.13604 -3.17171 -1.855 -2.85599 -1.05514 -0.935747 -2.73538 -0.905617 -1.39805 -1.41858 -2.83583 -3.21537 -2.90498 -5.01084 -0.642178 -4.19253 -1.59974 -3.26952 -2.96826 -1.06881 -1.25969 1.32358 -2.49679 -2.94693 -2.84163 -2.71854 -1.62856 -3.1056 -3.17699 -2.8956 -2.93677 -3.30116 7.52883 -2.72974 -2.95868 -2.60658 -3.91218 -2.79203 -2.69366 -2.81014 -4.14677 0.303874 -0.657887 -0.263619 -0.602999 -0.0346626 5.2778 -0.679778 1.76983 -0.575876 4.9265 2.61334 -0.0326012 -0.218806 0.196994 0.0282702 -9.90655 -2.88125 -1.38805 -1.05416 0.558394 -1.37391 2.18951 -1.2294 -0.487065 0.245263 -1.14407 -0.423569 -0.425021 -2.29178 -0.479514 -0.592113 1.35297 -0.764819 -0.829029 -0.617965 -1.04253 -2.1831 0.53484 -0.569862 -0.586759 -0.673704 -1.04447 -0.668063 -1.92084 -0.632334 -2.71401 -0.892581 -0.662872 -0.991177 -0.288023 0.0719431 -0.943198 -0.313525 -0.8901 0.0597347 0.564661 -0.480865 -0.142599 -0.0153305 -0.350645 -2.94334 -1.45112 -1.48912 -1.0063 -0.273708 -1.36128 0.187862 -1.04428 -0.893828 -0.0125926 0.301755 -0.44006 -0.7036 -1.63609 -0.889167 -0.856737 0.0164632 -0.997161 -1.09026 -0.865733 -1.14364 -1.66825 -0.0447056 -0.882708 -0.874175 -0.928453 -1.00937 -0.880021 -1.64232 -0.903619 -1.54664 0.563478 2.3919e-16 0.825737 1.11662 2.3919e-16 0.59425 2.3919e-16 1.53683 1.38536 0.469761 0.936648 1.04669 0.752265 2.3919e-16 2.3919e-16 2.3919e-16 2.3919e-16 0.811632 2.3919e-16 1.54621 2.3919e-16 2.3919e-16 1.39711 3.62281 0.514327 0.469567 2.3919e-16 2.3919e-16 2.3919e-16 1.10128 2.3919e-16 2.3919e-16 2.3919e-16 2.3919e-16 2.3919e-16 1.30031 2.3919e-16 2.3919e-16 2.3919e-16 2.3919e-16 2.3919e-16 2.3919e-16 2.3919e-16 2.3919e-16 -0.652358 0.0488783 2.00642 -0.645787 0.446512 -0.39982 -0.13201 1.67435 0.448608 0.0608467 0.242971 0.404629 -3.97361 -1.13252 -0.416575 -0.754759 0.415733 -0.75897 2.1928 -0.728879 -0.464139 0.550522 2.58204 -0.122084 -0.346492 -0.852965 -0.441683 -0.537313 1.4474 -0.425654 -0.374314 -0.61171 -0.446693 -0.898386 0.614812 -0.521734 -0.561121 -0.479946 -0.780697 -0.594812 -0.840737 -0.529219 -1.11715 0.865386 3.71263 2.3919e-16 1.73409 2.3919e-16 11.2889 3.03924 0.921971 0.938621 1.19341 1.02705 2.3919e-16 2.3919e-16 2.3919e-16 2.3919e-16 1.13469 2.3919e-16 3.2613 2.3919e-16 2.3919e-16 1.23423 4.33079 0.452625 0.340494 2.3919e-16 2.3919e-16 2.3919e-16 1.55117 2.3919e-16 2.3919e-16 2.3919e-16 2.3919e-16 2.3919e-16 2.68201 2.3919e-16 2.3919e-16 2.3919e-16 2.3919e-16 2.3919e-16 2.3919e-16 2.3919e-16 2.3919e-16 0.0456407 -0.857985 -0.298353 -0.809883 0.243941 -0.265795 0.0179788 0.399796 -0.016506 0.0760559 -6.3909 -1.60064 -1.12196 -0.87845 -0.0783618 -1.08164 -0.198356 -1.01623 -0.834752 0.338247 6.10792 -0.491946 -0.488216 -1.37693 -0.829514 -0.829867 -0.0260824 -0.733855 -0.910249 -0.839097 -0.97935 -1.32785 -0.20288 -0.835763 -0.835675 -0.827116 -1.01038 -0.850008 -1.00932 -0.827283 -1.47283 -4.10775 -0.111356 -1.19099 0.177596 0.589036 -3.64287 0.0264579 -0.00505508 1.64066 -3.00605 -4.8803 -3.48548 -7.45138 1.01177 -4.33374 -0.257355 -6.64652 -1.36313 0.357964 0.567794 -3.21994 -1.20175 -1.99493 -1.4885 -1.01479 -0.237257 -3.24814 -4.46625 -1.08978 -2.97388 -2.63955 0.699301 -1.08243 -1.03211 -1.15867 -4.42193 -1.0118 -2.15572 -1.25868 -9.81816 1.44835 2.3919e-16 9.56384 1.79914 0.877426 0.925657 1.12904 0.964539 2.3919e-16 2.3919e-16 2.3919e-16 2.3919e-16 0.959339 2.3919e-16 3.04098 2.3919e-16 2.3919e-16 1.32981 4.10832 0.423938 0.498712 2.3919e-16 2.3919e-16 2.3919e-16 1.40361 2.3919e-16 2.3919e-16 2.3919e-16 2.3919e-16 2.3919e-16 2.17401 2.3919e-16 2.3919e-16 2.3919e-16 2.3919e-16 2.3919e-16 2.3919e-16 2.3919e-16 2.3919e-16 -0.788227 -0.739429 0.644845 -4.28131 0.252191 0.648572 0.214092 -7.10375 -9.10895 -4.7135 -2.49737 -0.663253 -4.45421 0.913563 -3.35926 -0.559796 0.994919 1.40379 -0.107874 -0.440296 -6.07421 -0.692142 -0.31809 0.410283 -1.98322 -2.8818 -0.524883 -3.51241 -6.17267 -0.19316 -0.570448 -0.365018 -0.686644 -3.16876 -0.81851 -6.43291 -0.706116 -8.2812 3.28927 1.39319 0.519378 0.927866 1.02525 0.768839 2.3919e-16 2.3919e-16 2.3919e-16 2.3919e-16 0.747051 2.3919e-16 1.79629 2.3919e-16 2.3919e-16 1.43451 2.26571 0.507536 0.561243 2.3919e-16 2.3919e-16 2.3919e-16 1.21567 2.3919e-16 2.3919e-16 2.3919e-16 2.3919e-16 2.3919e-16 1.3187 2.3919e-16 2.3919e-16 2.3919e-16 2.3919e-16 2.3919e-16 2.3919e-16 2.3919e-16 2.3919e-16 0.276863 3.32787 -0.0170867 0.0289005 1.42027 -0.774088 -4.75995 -3.45657 -8.5711 2.23555 -2.8256 0.363608 -12.4043 -2.04419 0.880913 0.624738 0.604004 -0.215533 -2.32069 -2.70174 -1.1679 0.115617 -3.52281 -3.23146 -1.275 -3.85048 -5.2964 1.80501 -2.06091 -1.25726 -6.01554 -22.5806 -2.02414 -2.34651 -3.80572 -5.98719 -1.45671 -0.300557 -0.344678 -0.252686 -2.03817 -3.79646 -2.50562 -6.01208 -0.428412 -2.21989 -0.25514 -4.23422 -1.42377 -0.702705 0.0126264 -1.92093 -2.16003 -2.53736 -1.4128 -1.32407 -0.342718 -1.80202 -3.75027 -1.34229 -2.67532 -2.93376 -0.118186 -1.36509 -1.25851 -1.3699 -3.66732 -1.33175 -3.26474 -1.3878 -5.39095 0.732945 0.240677 0.0529876 -13.7647 -3.07154 -1.26099 -1.09897 1.01233 -1.59621 1.7665 -1.24937 -0.500823 0.547147 2.41999 -0.475186 -0.408477 -2.62932 -0.512271 -0.474278 1.74281 -0.815603 -0.870432 -0.602302 -1.24686 -2.46133 1.04336 -0.579636 -0.498245 -0.444311 -1.45834 -0.677587 -2.18904 -0.597056 -2.7015 0.158345 -0.227237 -5.78975 -3.30466 -1.54108 -1.31955 0.0292258 -1.79545 0.17132 -0.988142 -0.916856 0.806658 0.277091 -0.0206717 -0.220689 -2.87686 -0.921448 -0.912742 0.154176 -1.0864 -1.22753 -0.912555 -1.06598 -2.24244 0.0650431 -0.91683 -0.923688 -0.962392 -0.950354 -0.923289 -2.06054 -0.924598 -3.12333 -0.0817072 96.3542 -2.79278 -1.74962 -1.33742 -0.322005 -1.61256 0.321366 -1.40156 -1.04758 1.70702 0.345272 -0.320749 -0.289817 -3.99733 -1.04865 -0.994358 -0.0168881 -1.22939 -1.35546 -1.0181 -1.51466 -3.664 0.117377 -1.03667 -1.00358 -1.05433 -1.36898 -1.03936 -2.33035 -1.02533 -2.35263 -4.86811 -2.89872 -1.71234 -1.03484 0.0941481 -1.51402 1.27226 -1.40322 -0.759726 0.39091 1.78017 -0.244857 -0.14994 -2.47136 -0.734339 -0.718006 -0.00574215 -0.695792 -0.821064 -0.785519 -1.28664 -2.4338 -0.188959 -0.832489 -0.749275 -0.784788 -1.34007 -0.886438 -1.75306 -0.71396 -2.31901 2.3919e-16 2.3919e-16 2.3919e-16 10.2358 2.3919e-16 5.38212 2.3919e-16 2.3919e-16 8.41267 2.91529 2.21097 2.38522 2.3919e-16 2.3919e-16 2.3919e-16 2.08961 2.3919e-16 2.3919e-16 2.3919e-16 2.3919e-16 2.3919e-16 16.8017 2.3919e-16 2.3919e-16 2.3919e-16 2.3919e-16 2.3919e-16 2.3919e-16 2.3919e-16 2.3919e-16 2.3919e-16 2.3919e-16 5.05236 2.3919e-16 12.2498 2.3919e-16 2.3919e-16 1.60314 5.63443 0.880462 0.762897 2.3919e-16 2.3919e-16 2.3919e-16 4.01831 2.3919e-16 2.3919e-16 2.3919e-16 2.3919e-16 2.3919e-16 11.4645 2.3919e-16 2.3919e-16 2.3919e-16 2.3919e-16 2.3919e-16 2.3919e-16 2.3919e-16 2.3919e-16 2.3919e-16 2.82786 2.3919e-16 5.62856 2.3919e-16 2.3919e-16 1.93277 3.16898 0.601698 0.291632 2.3919e-16 2.3919e-16 2.3919e-16 3.38728 2.3919e-16 2.3919e-16 2.3919e-16 2.3919e-16 2.3919e-16 6.11438 2.3919e-16 2.3919e-16 2.3919e-16 2.3919e-16 2.3919e-16 2.3919e-16 2.3919e-16 2.3919e-16 1.68129 2.3919e-16 3.62122 2.3919e-16 2.3919e-16 1.39774 4.77447 0.643309 0.520798 2.3919e-16 2.3919e-16 2.3919e-16 2.7524 2.3919e-16 2.3919e-16 2.3919e-16 2.3919e-16 2.3919e-16 3.71257 2.3919e-16 2.3919e-16 2.3919e-16 2.3919e-16 2.3919e-16 2.3919e-16 2.3919e-16 2.3919e-16 -2.44355 1.99997 -1.73374 -0.728515 0.856628 2.44645 -0.466586 -0.0209995 -5.14107 -0.563207 -0.545676 0.565556 -1.37443 -1.60432 -0.492919 -2.0364 -4.20307 0.917908 -0.690648 -0.536111 -0.883115 -1.46589 -0.788448 -3.96733 -0.861541 -4.68252 3.95117 2.3919e-16 2.3919e-16 1.34725 3.0184 0.812189 0.303484 2.3919e-16 2.3919e-16 2.3919e-16 4.62779 2.3919e-16 2.3919e-16 2.3919e-16 2.3919e-16 2.3919e-16 5.98001 2.3919e-16 2.3919e-16 2.3919e-16 2.3919e-16 2.3919e-16 2.3919e-16 2.3919e-16 2.3919e-16 -5.15193 -1.72852 0.131738 2.09933 -2.46756 -1.76246 -3.27103 -1.57357 -1.21683 -0.680691 -2.01335 -2.64515 -1.51211 -2.83254 -6.52737 -1.15293 -1.43387 -1.25467 -1.61355 -3.12677 -1.85501 -5.14418 -1.68825 -5.17665 2.3919e-16 1.58162 4.09792 0.566053 0.524216 2.3919e-16 2.3919e-16 2.3919e-16 3.42462 2.3919e-16 2.3919e-16 2.3919e-16 2.3919e-16 2.3919e-16 4.39956 2.3919e-16 2.3919e-16 2.3919e-16 2.3919e-16 2.3919e-16 2.3919e-16 2.3919e-16 2.3919e-16 1.40446 2.47018 0.406462 0.307291 2.3919e-16 2.3919e-16 2.3919e-16 1.11525 2.3919e-16 2.3919e-16 2.3919e-16 2.3919e-16 2.3919e-16 1.34925 2.3919e-16 2.3919e-16 2.3919e-16 2.3919e-16 2.3919e-16 2.3919e-16 2.3919e-16 2.3919e-16 -1.20174 -0.946206 -1.02916 -0.774322 -1.43503 -1.46943 -0.400444 -1.30527 -1.50168 -1.46001 -1.33867 -1.92226 -0.944886 -1.52941 -1.48886 -1.47027 -1.49843 -1.54442 -1.55172 -1.37847 -2.39076 -0.00995904 -2.30539 -4.60637 -2.37553 -2.09629 -0.529729 -2.93131 -4.45889 -1.92857 -7.36326 -11.7654 -0.0435655 -2.40264 -1.87536 -2.73632 -5.37882 -2.35994 -2.33755 -2.77989 -9.32432 0.0821254 -0.750531 -0.438513 -0.617487 0.383956 -0.506252 -0.544159 -0.665496 -0.468638 -0.615918 0.842551 -0.656399 -0.609705 -0.66683 -0.62658 -0.704998 -0.678835 -0.564108 -1.04827 -0.556297 -0.476874 -0.634017 0.325333 -0.496471 -0.576426 -0.529348 -0.429012 -0.517098 0.53239 -0.592108 -0.640822 -0.176885 -0.615609 -0.63924 -0.553004 -0.497676 -0.608827 2.3919e-16 2.3919e-16 2.05058 2.3919e-16 2.3919e-16 2.3919e-16 2.3919e-16 2.3919e-16 7.29048 2.3919e-16 2.3919e-16 2.3919e-16 2.3919e-16 2.3919e-16 2.3919e-16 2.3919e-16 2.3919e-16 2.3919e-16 1.1087 2.3919e-16 2.3919e-16 2.3919e-16 2.3919e-16 2.3919e-16 1.20569 2.3919e-16 2.3919e-16 2.3919e-16 2.3919e-16 2.3919e-16 2.3919e-16 2.3919e-16 2.3919e-16 0.875233 2.3919e-16 2.3919e-16 2.3919e-16 2.3919e-16 2.3919e-16 0.793494 2.3919e-16 2.3919e-16 2.3919e-16 2.3919e-16 2.3919e-16 2.3919e-16 2.3919e-16 2.3919e-16 -1.79562 -2.61772 -0.859156 -0.820128 -3.20289 0.0619899 -1.05306 -0.880563 -1.18089 -2.70935 -0.985788 -3.51502 -1.05153 -6.6236 2.3919e-16 2.3919e-16 2.3919e-16 2.3919e-16 2.58531 2.3919e-16 2.3919e-16 2.3919e-16 2.3919e-16 2.3919e-16 2.3919e-16 2.3919e-16 2.3919e-16 2.3919e-16 2.3919e-16 2.3919e-16 3.81261 2.3919e-16 2.3919e-16 2.3919e-16 2.3919e-16 2.3919e-16 2.3919e-16 2.3919e-16 2.3919e-16 2.3919e-16 2.3919e-16 1.0238 2.3919e-16 2.3919e-16 2.3919e-16 2.3919e-16 2.3919e-16 2.3919e-16 2.3919e-16 2.3919e-16 2.3919e-16 3.78397 2.3919e-16 2.3919e-16 2.3919e-16 2.3919e-16 2.3919e-16 2.3919e-16 2.3919e-16 2.3919e-16 7.87348 2.3919e-16 2.3919e-16 2.3919e-16 2.3919e-16 2.3919e-16 2.3919e-16 2.3919e-16 2.3919e-16 -1.14387 -0.844187 -1.39094 -3.80645 -1.19631 -7.72745 -1.34323 -10.2345 2.3919e-16 2.3919e-16 2.3919e-16 2.3919e-16 2.3919e-16 2.3919e-16 2.3919e-16 2.3919e-16 2.3919e-16 2.3919e-16 2.3919e-16 2.3919e-16 2.3919e-16 2.3919e-16 2.3919e-16 2.3919e-16 2.3919e-16 2.3919e-16 2.3919e-16 2.3919e-16 2.3919e-16 2.3919e-16 2.3919e-16 2.3919e-16 2.3919e-16 2.3919e-16 2.3919e-16 2.3919e-16
nr_sv 1309 28 2 50 74 15 2 2 4 3 9 24 27 19 4 3 25 25 26 7 9 25 9 1 1 8 2 25 1 4 14 2 31 2 4 1 2 1 2 4 1 2 1 4 6 2 4 3 2 1 1 1 1 2 1 4 1 1 3 6 2 2 1 1 1 3 1 1 1 1 1 3 1 1 1 1 1 1 1 1
SV
0 0 0 0 0 0.0001867304468298747 0 0 0 0 0 0 0 0 0 0 3.087775295398336e-05 0 0 0 0 0 0 0 0 0 0 0 0 0 3.930988140500725e-05 0 5.891800069596459e-05 0 0 0 0 0 0 0 0 0 0 0 0 0 0 0 0 0 0 0 0 0 0 0 0 0 0 0 0 0 0 0 0 0 0 0 0 0 0 0 0 0 0 0 0 0 0 0:1 
0 0 0 0 0 0 0 0 0 0 0 0 0 0 0 0 0 0 0 0 0.003754145673777734 0 0 0 0 0 0.0001824941951639809 0 0 0 0 0 0 0 0 0 0 0 0 0 0 0 0 0 0 0 0 0 0 0 0 0 0 0 0 0 0 0 0 0 0 0 0 0 0 0 3.581819791831162e-05 0 0 0 0 0 0 0 0 0 0 0 0 0:3 
0 0 0 0 0 0 0 0 0 0 0 0 0 0 0 0 0.0004827535512690961 0 0.0001934123282557916 0 0 0 0 0 0 0 0.0005795746405752129 0 0 0 0 0.0002169782800527937 0 0 0 0 0 0 0 0 0 0 0 0 0 0 0 0 0 0 0 0 0 0 0 0 0 0 0 0 0 0 0 0 0 0 0 0 0 0 0 0 0 0 0 0 0 0 0 0:7 
0 0 0 0 0 0 0 0 0 0 0 0 0 0 0 0.0008250495244972894 0 0 0 0 0 0 0 0 0 0 0 0 0 8.886483816813601e-05 0 0 0 0 0 0 0 0 0 0 0 0 0 0 0 4.134853175225405e-05 0 0 0 0 0 0 0 0 0 0 0 0 0 0 0 0 0 0 0 0.0001995100500562615 0 0 0 0 0 0 0 0 0 0 0 0 0 0:8 
0 0 0 0 0 0 0 0 0 0 0 0 7.360710233427073e-05 0 0 0 0 0 0 0 0 0 0 0 0 0 0.001166065766868754 0 0 0.0004657631435618965 0 0 0 0 0 0 0 0 0 0 0 0 0 0 0 0 0 0 0 0 0 0 0 0 0 0 0 0 0 0 0 0 0 0 0 0 0 0.0004063264821048398 0 0 0 0 0 0 0 5.126549261429826e-05 0 0 0 0:9 
0.0001530646008638236 0 0 0 0.001920914417309519 0 0 0 0 0 0.0007304202892441695 0.01285078298672565 0.004114160289622719 0 0 0 0.00376507098808356 0.002367248863472824 0.0001605445494978522 0 0.006807590676759791 0 0 0 0 0 0.01460240182664573 0 0 0 0 0.007773233276359278 0 0 0 0 0 0 0 0 0 0 0 0 0 0 0.003173653813615217 0 0 0 0 0 0 0 0 0 0 0 0 0 0 0 0 6.183469035265796e-05 0.0008351892121971616 0 0 0 0 0 0 0 0 0 0 0 0 0 0 0:10 
0 0 0 0 0 0 0 0 0 0 0 0 0 0 0 0.04767295453214575 3.906338930699485e-05 0 0 0 0 0 0 0 0 0 0 0 0 0 0 0 0 0 0 0 0 0 0 0 0 0 0 0 0 0 0 0 0 0 0 0 0 0 0 0 0 0 0 0 0 0 0 0 0 0 0 0 0 0 0 0 0 0 0 0 0 0 0 0:11 
0 0 0 0 0 0 0 0 0 0 0 0 0 0 0 0 0 0 0 0 0 0 0 0 0 0 0 0 0 0 0 0 0 1.52535275412359e-05 0 0 0 0 0 0 0 0 0 0.0001119589335025947 0 0 0 0 0 0 0 0 0 0 0 0 0 0 0 0 0 0 0 0 0 0 0 0 0 0 0 0 0 0 0 0 0 0 0 0:14 
0.0003402700199561318 0 0 0 0 0 9.872426519653616e-05 0 0 0 0 0 0 0 0 0 0.0005023900450164697 0 0 0 0 0 0 0 0 0 0 0 0 0 0 0 0 0 0 0 0 0 0 0 0 0 0 0 0 0 0 0 0 0 0 0 0 0 0 0 0 0 0.0002108769878501349 0 0 0 0 0 0 0 0 0 0 0 0 0 0 0 0 0 0 0 0 0:16 
0 0 0 0 0.00100352854761105 0 0 0 0 0 0 0 0 0 0 0 0 0 0 0 0 0 0 0 0 0 0 0 0 0.003866967799689409 0 0 0 0 0 0 0 0 0 0 0 0 0 0 0 0.0006121198327000146 0 0 0 0 0 0 0 0 0 0 0 0 0 0 0 0 0 0 0 0 0 0 0 0 0 0 0 0 0 0 0 0 0 0:17 
0 0 0.0007390220432863751 0.0002848454842592691 299.9986529779057 0 0 0 0 0 0 0 0 0 0 0 0 0 0 0 0 0 0 0 2.372324647638552e-05 0 0 0 0.0004676177154437948 0 0 0 0 0 0 0 0 0 0 2.297908299540238e-05 0 0 0 0 0 0 0 0 0 0 0 0 0 0 0 0 0 0 0 0 0 0 0 0 0 0 0 0 3.393295774128732e-05 0 0 0 0 0 0 0 0 0.0001885532618117337 0 0:19 
0 0 0 0 0 0 2.500794026997267e-05 0 0 6.479973640834976e-05 0 0 0 0 0 0 0 0 0 0 0 0 0 0 0 0 0 0 0 0 0 0 0 0 0 0 0 0 0 0 0 0 0 0 0 0 0 0 0 0 0 0 0 0 0 0 0 0 0.0001184405268958909 0 0 0 0 0 0 0 0 0 0 0 0 0 0 0 0 0 0 0 0 0:22 
0 0 0 0 0 0 0 0 0 0 0 0 0 0 0 0 0 0 0.0002956606912398141 7.86013539374022e-05 0 0 0 0 0 0 0 0 0 0 0 0 0 0 0 0 0 0 0 0 0 0 0.0002989471189910477 0 0 0 0 0 0 0 0 0 0 0 0 0 0 0 0 0 0 0 0 0 0 0 0 0 0 0 0 0 0 0 0 0 0 0 0 0:23 
0 0 0 0 0 0 4.781764950796747e-06 0 0 0 0 0 0 0 0 0 0 0 0 0 0 0 0 0 0 0 0 0 0 0 0 0 0 0 0 0 0 0 0 0 0 0 0 0 0 0 0 0 0 0 0 0 0 0 0 0 0 0 0.0001031818442967585 0 0 0 0 0 0 0 0 0 0 0 0 0 0 0 0 0 0 0 0 0:24 
0 0 0 0 0 0 0 0 0 0 0 0 0 0 0 0 0 0 0 0 0 0 0 0 0 0 0 0 0 300 0 0 0 0 0 0 0 0 0 0 0 0 0 0 0 0 0 0 0 0 0 0.0001271495085277447 0 0 0 0 0 0 0 0 0 0 0 0 0 5.053172574828655e-05 0 0 0 0 0 0 0 0 0 0 0 0 0 0:25 
0.000296436357394556 0 0 0 0 0 0 0 0 0.0001423765167343376 0 0 0 0 0 0 0 4.757909364494665e-06 0 0 0 0 0 0 0 0 0 0 0 0 0 0.001419399517588833 0 0 0 0 0 0 0 0 0 0 0 0 0 0 0 0 0 0 0 0 0 0 0 0 0 0 0 0 0 0 0 0 0 0 0 0 0 0 0 0 0 0 8.185016461334737e-06 0 0 0 0 0:26 
0.0001859569103004569 0 0.001393844355293199 0.0006294896287926696 0 0 0 0 0 0 0 0 0 0 0 0 0 0.001425189961237566 0 0 0 0 0 0 0 0 0 0 0 0 0 0 0 0 0 0 0 0 0 0 0 0 0 0 0 0 0 0 0 0 0 0 0 0 0 0 0 0 0 0 0 0 0 0 0 0 0 0 0 0 0 0 0 0 0 0 0 0 0 0:27 
0.0006360889165727537 0 0 0 0 0 0 0 0 0 0 0.0004949862921186735 0 0 0.0001630692107467468 0 0 0 0 0 0 0 0 0 0 0 0.02737921399760623 0 0.0004365587586895531 0 0 0.000893662263391517 0 0 0 0 0 0 0 0.0003245483482216921 0 0 0 0 0 0 0 0 0 0 0 0 0 0 0 0 0 0 0 0 0 0 0 0 0 0 0 0 0 0 0 0 0 0 0 0.0001484907164015526 0 0 0 0:28 
0 0 0 0 0 0 0 0 0 0 0 0 0 0 0 0 0 0 0 0 0 0 0 0 0 0 0 0 0 0 0 0 0 0 0 0 0 0 0 0 0 0 0 0 0 0 0 0 0 0 0 0 0 0 0 0 0 0 0 0 0 0 0 0 0 0 0 0 0 1.937584102445794e-06 0 0 0 0 0 0 0 0 0 0:30 
0 0 0 0.005026095028754713 5.81198752901717e-05 0 0 0 0 0 0.0009579647071304648 0.0004651652708470658 0 0 0 0.0001131374155126755 0 0 0 0 0.0001104087734992799 6.506381150889605e-05 0 0 0 0 0 0 0 0.000706946905579714 0 0 0 0 0 0 0 0 0 0 0 0 0 0 0 0.0007560182689272256 0 0 0 0 0 0 0 0 0 0 0 0 0 0 0 0 0 0 0 0 0 0 0 0 0 0 0 0 0 0 0 0 0 0:34 
0 0 0 0.000968191198165962 0 0 0 0 0 0 0 0 0 0 0 0.0001324831382874477 0 7.534795342071307e-05 0 0 0 0 0 0 0 0 0 0 0 0 0 0 0 0 0 0 0 0 0 0 0 0 0 0 0 0 0 0 0 0 0 0 0 0 0 0 0 0 0 0 0 0 0 0 0 0 0 0 0 0 0 0 0 0 0 0 0 0 0 0:35 
0 0 0 0 0 0 0 0 0 0 0 0 0 0 0 0 0 0 0 0 0 0 0 0 0 0 0 0 0 0 0 0 0 0 0 0 0 0 0 0 0 0 0 0 0 0 0 0 0 0 0 0 0 299.9999999366905 0 0 0 0 0 0 0 0 0 0 0 0 0 0 0 0 0 0 0 0 0 0 0 0 0 0:36 
0 0 0 0 0 0 0 1.19407466357779e-05 0 0 0 0 0 0 0 0 0 0 0 0 0 0 0 0 0 0 0 0 0 0 0 0 0 0 0 0 0 0 0 0 1.016869802926306e-05 0 0 0 0 0 0 0 0 0 0 2.182200794041322e-05 0 0 0 0 0 0 0 0 0 0 0 0 0 0 0 0 0 0 0 0 0 0 0 0 0 0 0 0:37 
0 0 0.0007713458399567549 0 0 0 0 0 0 0 0 0 0 0 0 0 0 0 0 0 0 0 0 0 0 0 0 0 0 0.0001824260053139171 0 0.0002105121108543781 0 0 0 0 0 0 0 0 0 0 0 0 0 0 0 0 0 0 0 0 0 0 0 0 0 0 0 0 0 0 0 0 0 0 0 0 0 0 0.0003124264457961679 0 0 0 0 0 0 0 0 0:38 
0 0 0 0 0 0 0 0 0 0 0 0 0 0 0 0 0 0.002400136297667152 0 0 0 0 0 0 0 0 0 0 0 0 0 0 0 0 0 0 0 0 0 0 0 0 0 0 0 0 0 0 0 0 0 0 0 0 0 0 0 0 0 0 0 0 0 0 0 0 0 0 0 0 0 0 0 0 0 0 0 0 0 0:39 
0 0 0 0 0 0 0 0 0 0 0 0 0 0 0 0.001634068844643094 0 0 0 0 0 0 0 0 0 0 0 0 0 0 0 0 0 0 0 0 0 0 0 0 0 0 0 0 0 0 0 0 0 0 0 0 0 0 0 0 0 0 0 0 0 0 0 0 0 0 0 0 0 0 0 0 0 0 0 0 0 0 0 0:43 
0 0 0 0 0 0 0 0 0 0 0.001302090019312758 0.0002701057315111058 0 0 0 0.0003593178143394803 0 0 0 0 0 0 0 0 0 0 0 0 0 0 0 0 0 0 0 0 0.0001414994871394635 0 0 0 0 0 0 0 0 0 0 0 0 0 0 0 0 0 0 0 0 0 0 0 0 0 0 0 0 0 0 0.000734764014686135 0 0 0 0 0 0 0.0001391646484820169 0 0 0 0 0:44 
0 0 0 0 0 0 0 0 0 0 0.001914465885439561 0 7.015919400498019e-05 0 0 0 0 0.001319565078273847 0 0 0.0006373268147556588 0 0 0 0 0 0.0006080315070163733 0 0 0.0004400563514269816 0 0 0 0 0 0 0 0 0 0 0 0 0 0 0 4.080715526566701e-05 0 0 0 0 0 0 0 0 0 0 0 0 0 0 0 0 0 0 0 0 0 0 0 0 0 0 0 0 0 0 0 0 0 0:46 
0 0 0 0 0 2.777498994914429e-05 0 0 0 0 0 0 0 0 0 0 0 0 0 0 0 0 0 0 0 0 0 0 0 0 0 0 0 0 0 0 0 0 0 0 0 0 0 0 0 0 0 0 0 0 0 0 0 0 0 0 0 0 0 0 0 0 0 0 0 0 0 0 0 0 0 0 0 0 0 0 0 0 0 0:47 
6.783344358548121e-05 5.217167336564205e-05 0 8.319629087795671e-05 0 0 0 0 0 0 0 0 0 0 0 0 0 0 0 0 0 0 0 0 0 0 1.331378674350441e-05 0 0 0 0 0.0003911753143662712 0 0 0 0 0 0 0 0 0 0 0 0 0 0 0 0 0 0 0 0 0 0 0 0 0 0 0 0 0 0 0 0 0 0 0 0 0 0 0 0 0.0001451497770007078 0 0 0 0 0 0 0:48 
0 0 0.0001071604746640061 0 0 0 0 0 0 0 0 0 0 0 0 0 0 0 0 0 0 0 0 0 0 0 0 0 0 0 0 0 0 0 0 0 0 0 0 0 0 0 0 0 0 0 0 0 0 0 0 0 0 0 0 0 0 0 0 0 0 0 0 0 0 0 0 0 0 0 0 0 0 0 0 0 0 0 0 0:49 
0 0 0 0.0005210060767020517 0 0 0 0 0 0 0 0 0 0 0 0 0 0.000328904903425625 0 0 0 0 0 0 0 0 0 0 0 0 0 0 0.0001517796391307367 0 0 0 0 0 0 8.262388807352036e-05 0 0 0 0 0 0 0 0 0 0 0 0 0 0 0 0 0 0 0 0 6.483647177364816e-05 0 0 0 0 0 0 0 0 0 0 0 0 0 0 0 0 0.0001755187960040572 0 0:51 
0 0 0 0.1195502479029701 0 0 0 0 0 0 0 0 0 0 0 0 0.001425044596947445 0.001538422296739423 0 0.00611699886997405 0.001344178674450227 0 0 0 0 0 0.002297364913648464 0 0 0 0 0 0 0 0 0 0 0 0 0 0 0 0 0 0 0 0 0 0 0 0 0 0 0 0 0 0 0 0.0007864657070923907 0 0 0 0 0 0.001094808672387251 0 0 0.0001357417986768181 0 0 0 0 0 0 0 0 0 0 0 0:54 
0 0 0.002350256645214874 0 0 0 0 0 0 0 0 0 0 0 0.000239724172749249 0 0 0 0 0 0 0 0 0 0 0 0 0 0 0 0 0 0 0 0 0 0 0 0 0 0 0 0 0 0 0 0 0 0 0 0 0 0 0 0 0 0 0 0 0 0 0 0 0 0 0 0 0 0 0 0 0 0 0 0 0 0 0 0 0:56 
0 0 0 0 0 0.0004044797705141827 0 0 0 0 0 0 0 0 0 0 0 0 0 0 0 0 0 0 0 0 0 0 0 0 0 0 0 0 0 0 0 0 0 0 0 0 0 0 0 0 0 0 0 0 0 2.417572201876657e-05 0 0 0 0 0 0 0 0 0 0 0 0 0 0 0 0 0 0 0 0 8.799082292825506e-05 0 0 0 0 0 0 0:57 
0 0 0 0 0 0 0 0 0 0 0 0 0 0 0 0 0 0 0 0 9.368851045073937e-06 0 0 0 0 0 0 0 0 0 0 0 0 0 0 0 0 0 0 0 0 0 0 0 0 0 0 0 0 0 0 0 0 0 0 0 0 299.9999120337181 0 0 0 0 0 0 0 0 0 0 0 0 0 0 0 0 0 0 0 0 0 0:61 
0 0 0 0 0 0 0 0 0 0 0.001120062683395314 0 0 0 0 0.0005340949491809371 0 0 0 0 0.0004394590348053386 0 0 0 0.000277423823653881 0 6.548962266397506e-05 0 0 0 0 0 0 0 0 0 0 0 0 3.092560499025729e-05 0 0 0 0 0 0 0 0 0 0 0 0 0 0 0 0 0 0 0 0 0 0 0 0 0 0 0 0.0003285956315975831 0 0 0 0 0 0 0 0 0 0 0 0:63 
0 0 0 0 0 0 0 0 0 0 0 0 0 0 0 0 0 0 0 0 0 5.64159912957155e-05 0 0 0 0 0 0 0 0 0 0 0 0 0 0 0 0 0 0 0 0 0 0 0 0 0 0 0 0 0 0 0 0 0 0 0 0 0 0 0 0 0 0 0 0 0 0 0 0 0 0 0 0 0 0 0 0 0 0:66 
0 0 0 0 0 0 0 0 0 0 0 0 0 0 0 0.0003691906506707476 0 0 0 0 0 0 0 0 0 0 0.0002980631776087205 0 0 0 0 0 0 0 0 0 0 0 0 0 0 0 0 0 0 0 0 0 0 0 0 0 0 0 0 0 0 0 0 0 0 0 0 0 0 0 0 0 0 0 0 0 0 0 0 0 0 0 0 0:67 
0 0 0 0 0 0 0 0 0 0 0 0 0 0 5.261757713029121e-05 0 0 0 0 0 0 0.000602996279526339 0 0 0 0 0 0 0 0 0 0 0 0 0 0 0 0 0 0 0 0 0 0 0 0 0 0 0 0 0 0 0 0 0 0 0 0 0 0 0 0 0 0 0 0 0 0 0 0 0 0 0 0 0 0 0 0 0 0:70 
0 0 0.001111943962602763 0 0 0 0 0 0 0 0 0.003138777454800712 0 0 0 0 0 0 0 0 0 0 0 0 0 0 0.001188792407208238 0 0 0 0 0.0003763497579736558 0 0 0 0 0 0 0 0 0 0 0 0 0 0 0 0 0 0 0 0 0 0 0 0 0 0 0 0 0 0 0 0 0 0 0 4.248137078554123e-05 0 0 0 0 0.0006567170860369532 0 0 0 0 0 0 0:71 
0 0 0 0 0 0 0 0 0 0 0 0 0 0 0 7.21284943576476e-05 0 0 0 0 0 0 0 0 0 0 0 0 0 0 0 0 0 0 0 0 0 0 0 0 0 0 0 0 0 0 0 0 0 0 0 0 0 0 0 0 0 0 0 0 0 0 0 0 0 0 0 0 0 0 0 0 0 0 0 0 0 0 0 0:73 
0 0 299.9993897906216 0 0 0 0 0 0 0 0 0.001282616488364165 0 0 0 0 0.0002867288250059184 0 0.000270433265597357 0 0 0 0 0 0 0 0 0 0 0 0 0 0 0 0 0 0 0 0 0 0 0 0 0 0 0 0 0 0 0 0 0 0.000268801461714193 0 0 0 0 0 0 5.586538049164453e-05 0 0 0 0 0.0002073030466870484 0 0 0 0 0 0 0 0 0 0 0 0 0 0 0:74 
0 0 0 0 0 0 0 0 0 0 0 0 0 0 0 0 0 0 0 0 0 0 0 0 0 0 0 0 0 0.003324417553044728 0 0 0 0 0 0 0 0 0 0 0 0 0 0 0 0 0 0 0 0 0 0 0 0 0 0 0 0 0 0 0 0 0 0 0 0 0 0 0 0 0 0 0 0 0 0 0 0 0 0:76 
0 0 0 0 0 0 0 0 0 0 0 0 0 0 0 0 0 0.001576090478210895 0 0 0 0 0 0 0 0 0 0 0 0 0 0 0 0 0 0 0 0 0 0 0 0 0 3.430157597730378e-05 0 0 0 0 0 0 0 0 0 0 0 7.51241287690607e-05 0 0 8.790584776073677e-06 0 0 0 0 0 0 0 0 0 0 0 0 0 0 0 0 0 0 0 0 0:77 
0 0 0.000424916086451398 0 0 0 0 0 0 0 0 0.004574926440064973 0 0 0 0 0 0 0.001032056994858721 0 0 0.001176359627729491 0 0 0 0 0 0 0 0 0 0 0 0 0 0 0 0 0 0 0 0 0 0 0 0 0 0 0 0 0 0 0 0 0 0 0 0 0 0 0 0 0 0 0 0 0 0 0 0 0 0 1.987442601198572e-05 0 0 0 0 0 0 0:81 
0 0 0 299.9995021803606 0 0 0 0 0 0 0 0 0.000197137887053477 0 0 0 0 0.0004737790017163914 0 0 0 0 0 0 0 0 0 0 0.0005199372009680639 0 0 0 0 0 0 0 0 0 0 0 0 0 0 0 0 0 0 0 0 0 0 0 0 0 8.605649974747034e-05 0 0 0 0.0005202899856147346 0 4.115244595014244e-05 0 0 0 0 0 0 0 0 0 0 0 0 0 0 0 0 0 0 0:82 
0 0 0.0004973822555641776 0 0 0 0 0 0 0 0 0 0 0 0 0 0 0 0 0 0 0 0 0 0 0 0 0 0 0 0 0 0 0 0 0 0 0 0 0 0 0 0 0 0 0 0 0 0 0 0 0 0 0 0 0 0 0 0 0 0 0 0 0 0 0 0 0 0 0 0 0 0 0 0 0 0 0 0 0:83 
0 0 0.04016123866463254 0 0 0 0 0 0 0 0 0 0 0 0 0 0 0 0 0 0 0 0 0 0 0 0.0003451927305804823 0 0 0 0 0 0 0 0 0 0 0 0 0 0.001228220008441155 0 0 0 0 0 6.757737304408558e-05 0 0 0 0 0 0 0 0 0 0 0 7.701036487136314e-05 0 0 0 0 0 1.193969148802891e-05 0 0 0.000144196916500016 0 0 0.0004000998120263996 0 0 0 0 0 0 0 0 0:85 
0 0 0 0 0 0 0 0 0 0 0.001242287434238014 0 0 0 0 0 0.0005860955767573673 0 0.0007093116505513568 0 0.0002601323957135189 0 0 0 0 0 0.000767925446906249 0 0 0 0 0 0 0 0 0 0 0 0 0 0 0 0 0 0 0 0 0 0 0 0 0 0 0 0 0 0 0 0 3.90220315811032e-05 0 0 0 0 0.001706040736283501 0 0 0 0 0 0 0 0 0 0 0 0 0 0 0:86 
0 0 300 0.003369637504144439 0 0 0 0 0 0 0 0 0.0008524378727990349 0 0 0 0 0.000503532895779659 0 0 0 0 0 0 0 0 0 0 0 0 0 0 9.3553163921698e-05 0 0 0 0 0 0.001337394882698238 0 0 0 0 0 0 0 0 0 0 0 0 0 0 0 0 0 0 0 0 9.502277888700519e-05 0 0 0 0.001592827955298175 0 0 0 0 0 0 0 0 0.000619273225444613 0 0 0 0 0 0 0:87 
